svm_type c_svc
kernel_type rbf
gamma 0.0666667
nr_class 2
total_sv 577
rho -0.863266
label 1 -1
probA -2.48295
probB 0.000202259
nr_sv 287 290
SV
1 1:1.594 2:0.572 3:0.974 4:-0.947 5:0.055 6:0.304 7:-0.116 8:-0.338 9:0.826 10:0.047 11:0.8 12:0.763 13:0.38 14:-0.089 15:-0.46 
1 1:1.777 2:0.435 3:1.289 4:1.365 5:-0.204 6:0.194 7:-0.074 8:0.66 9:0.577 10:0.738 11:1.344 12:2.229 13:-0.652 14:-0.31 15:0.025 
1 1:0.648 2:-0.001 3:0.09 4:-1.101 5:-0.687 6:1.207 7:0.004 8:-0.128 9:-0.68 10:0.595 11:-0.561 12:-0.842 13:-1.346 14:-0.352 15:-0.012 
1 1:-0.151 2:0.1 3:-0.362 4:-0.986 5:1.32 6:-0.147 7:-0.562 8:0.075 9:-0.231 10:1.308 11:2.419 12:-0.654 13:1.731 14:-0.583 15:1.326 
0.01851668922887949 1:1.404 2:0.773 3:0.494 4:1.66 5:0.949 6:0.205 7:1.364 8:0.457 9:1.796 10:0.117 11:1.924 12:0.763 13:1.318 14:2.014 15:-0.096 
0.5137169968629727 1:1.568 2:-0.101 3:0.338 4:-0.849 5:0.231 6:1.029 7:-0.286 8:-0.474 9:1.093 10:0.106 11:-0.572 12:0.541 13:-0.076 14:1.637 15:1.353 
1 1:0.454 2:1.47 3:0.049 4:1.405 5:0.949 6:0.131 7:-0.877 8:1.056 9:-0.37 10:-1.04 11:0.182 12:-0.693 13:0.106 14:-0.022 15:1.181 
1 1:1.252 2:0.282 3:-0.712 4:-0.528 5:1.701 6:0.091 7:0.73 8:0.383 9:-0.087 10:0.582 11:-0.557 12:0.605 13:-0.591 14:-0.93 15:-0.638 
1 1:-0.127 2:1.354 3:1.205 4:0.27 5:-0.117 6:0.113 7:-1.469 8:-0.081 9:-1.196 10:-1.263 11:1.087 12:0.365 13:2.05 14:1.344 15:0.085 
0.261955220792178 1:1.576 2:-0.425 3:1.614 4:1.183 5:-0.355 6:1.065 7:1.088 8:-0.162 9:-0.334 10:0.52 11:-0.275 12:0.628 13:-0.566 14:-0.545 15:-1.104 
1 1:0.226 2:0.077 3:1.135 4:1.769 5:-0.533 6:0.27 7:0.061 8:0.217 9:2.001 10:0.052 11:1.28 12:1.583 13:1.14 14:-0.378 15:0.234 
0.82837424248118 1:0.646 2:0.107 3:-0.503 4:0.81 5:-1.053 6:0.457 7:0.765 8:0.711 9:1.72 10:-1.209 11:-1.698 12:-1.501 13:-0.591 14:-1.82 15:0.324 
0.6455442988692258 1:0.724 2:-2.428 3:-1.214 4:-1.848 5:-1.502 6:0.966 7:0.429 8:0.254 9:-1.975 10:-1.166 11:-0.531 12:-0.678 13:-0.984 14:-0.806 15:-1.462 
1 1:0.562 2:-0.824 3:-0.976 4:-0.124 5:0.068 6:0.309 7:0.287 8:0.159 9:1.737 10:0.614 11:-2.123 12:-1.033 13:-0.046 14:0.656 15:0.203 
0.746878368906838 1:0.174 2:-0.109 3:0.91 4:-1.126 5:-0.222 6:1.108 7:0.542 8:0.163 9:-2.275 10:-1.282 11:-0.074 12:0.438 13:-1.673 14:-0.955 15:1.587 
1 1:1.348 2:-1.959 3:-0.889 4:-1.705 5:-1.095 6:0.107 7:-0.113 8:0.599 9:0.814 10:-1.373 11:0.441 12:-0.921 13:-0.152 14:-0.491 15:-1.976 
0.02017717547860587 1:-0.365 2:1.179 3:-0.51 4:-0.2 5:-1.469 6:0.208 7:0.804 8:1.107 9:1.686 10:1.577 11:1.523 12:-0.962 13:-0.964 14:-0.268 15:0.527 
1 1:-0.811 2:-1.11 3:0.001 4:-0.931 5:-2.079 6:0.982 7:-0.24 8:-0.507 9:-1.32 10:0.195 11:-0.074 12:0.761 13:1.019 14:-0.081 15:-0.572 
1 1:1.468 2:-0.798 3:-1.455 4:-0.846 5:0.511 6:0.055 7:-0.014 8:-0.43 9:-0.128 10:1.176 11:-2.082 12:-1.225 13:-0.355 14:-1.646 15:-2.052 
1 1:-0.439 2:1.06 3:-0.38 4:0.674 5:-1.711 6:0.116 7:-0.081 8:0.308 9:1.725 10:-0.951 11:0.551 12:-0.654 13:0.279 14:-0.551 15:-1.247 
1 1:-0.016 2:-0.157 3:-0.982 4:1.526 5:0.424 6:0.183 7:1.049 8:0.095 9:0.492 10:1.276 11:1.759 12:2.299 13:-0.938 14:-0.458 15:-0.187 
1 1:1.502 2:0.163 3:-0.989 4:-0.34 5:-1.016 6:-1.521 7:1.435 8:0.23 9:-0.343 10:0.431 11:0.025 12:2.101 13:0.768 14:1.006 15:0.691 
1 1:0.942 2:1.492 3:0.842 4:-0.2 5:1.52 6:-0.679 7:-0.601 8:1.117 9:0.082 10:1.216 11:0.306 12:-1.117 13:-0.056 14:-1.646 15:-0.823 
1 1:-0.157 2:0.263 3:-1.741 4:0.619 5:-0.044 6:0.212 7:-2.039 8:0.159 9:-0.365 10:-0.599 11:-1.957 12:-0.96 13:0.839 14:0.227 15:0.388 
1 1:-0.403 2:0.9 3:-0.333 4:0.14 5:0.551 6:-0.401 7:1.951 8:-0.138 9:0.822 10:0.896 11:-1.177 12:-0.96 13:-0.36 14:-0.235 15:-0.242 
1 1:-0.545 2:0.181 3:0.158 4:-0.121 5:0.17 6:0.035 7:-1.203 8:0.623 9:0.66 10:-0.685 11:0.244 12:0.448 13:-1.126 14:-2.212 15:-1.595 
1 1:0.458 2:0.39 3:1.342 4:-0.798 5:0.635 6:0.246 7:0.649 8:-0.091 9:-0.727 10:-1.325 11:-1.704 12:-2.163 13:0.988 14:-0.095 15:-0.702 
0.4775277141548904 1:0.42 2:0.889 3:1.035 4:1.587 5:1.571 6:0.176 7:-0.099 8:-0.876 9:-0.319 10:0.326 11:-1.02 12:-1.602 13:-1.057 14:-0.458 15:-1.501 
0.4812354168432934 1:0.42 2:0.193 3:-0.271 4:1.338 5:-0.896 6:0.989 7:0.256 8:-0.27 9:0.101 10:0.896 11:-1.477 12:0.011 13:-0.573 14:-0.314 15:-0.145 
0.8258508995076729 1:-0.993 2:-1.743 3:-1.162 4:-0.143 5:0.155 6:1.144 7:0.266 8:-1.083 9:-1.218 10:-1.658 11:-0.059 12:0.458 13:-1.43 14:-0.481 15:-0.95 
1 1:-1.403 2:0.237 3:-1.968 4:0.176 5:-0.189 6:0.311 7:1.116 8:-0.866 9:1.029 10:0.843 11:-1.041 12:-0.123 13:-1.08 14:-0.035 15:0.651 
1 1:1.164 2:-0.031 3:1.348 4:-1.08 5:-0.431 6:1.029 7:0.259 8:0.295 9:-1.435 10:-0.87 11:-0.531 12:-1.238 13:0.393 14:-1.166 15:-0.923 
1 1:-2.036 2:0.87 3:0.98 4:1.69 5:1.269 6:-0.033 7:-0.608 8:-0.067 9:-0.497 10:-0.991 11:2.419 12:0.616 13:-1.04 14:-0.338 15:0 
1 1:-0.171 2:1.343 3:-0.094 4:0.036 5:-0.071 6:0.16 7:0.532 8:1.533 9:0.106 10:0.047 11:0.563 12:-1.117 13:-0.231 14:-1.748 15:0.276 
1 1:-0.539 2:1.027 3:0.44 4:0.164 5:-0.908 6:0.971 7:-1.756 8:-0.375 9:-1.274 10:-1.658 11:-0.048 12:-0.881 13:0.717 14:0.91 15:1.366 
1 1:-0.219 2:0.338 3:-0.342 4:-1.077 5:0.985 6:-0.068 7:-0.024 8:-0.007 9:1.701 10:0.49 11:0.244 12:1.74 13:1.163 14:1.864 15:1.154 
1 1:0.25 2:0.2 3:1.514 4:0.579 5:-0.183 6:-0.255 7:-0.307 8:0.907 9:1.608 10:1.149 11:1.602 12:1.051 13:-1.389 14:-1.28 15:-0.417 
1 1:0.228 2:-0.839 3:0.862 4:1.514 5:-1.925 6:0.953 7:0.645 8:-0.653 9:1.283 10:0.821 11:-1.041 12:0.297 13:0.742 14:1.203 15:-0.081 
1 1:0.354 2:-0.142 3:-0.873 4:-0.68 5:0.979 6:-0.58 7:0.277 8:0.511 9:0.551 10:0.749 11:2.033 12:0.989 13:1.011 14:-0.798 15:1.932 
1 1:1.312 2:0.148 3:1.383 4:0.134 5:-0.585 6:0.113 7:0.73 8:1.012 9:0.729 10:-0.774 11:-1.477 12:0.982 13:2.114 14:0.656 15:0.237 
0.4242307458203573 1:-0.433 2:-0.176 3:0.974 4:0.158 5:1.653 6:1.058 7:-1.345 8:-1.018 9:-0.473 10:-1.287 11:1.759 12:0.529 13:-0.515 14:-0.8 15:-1.637 
0.1026568352320067 1:-1.413 2:-2.644 3:-3.206 4:-1.839 5:-1.982 6:1.099 7:-0.268 8:-2.149 9:-0.209 10:-0.733 11:0.8 12:2.281 13:-1.503 14:0.888 15:-0.075 
0.7203352064854243 1:0.026 2:1.027 3:0.199 4:1.541 5:0.653 6:0.066 7:-0.814 8:0.951 9:-0.382 10:-0.276 11:-1.477 12:-0.954 13:-0.786 14:0.898 15:0.279 
1 1:1.036 2:1.261 3:-0.135 4:-0.51 5:-1.406 6:0.966 7:1.116 8:-0.389 9:-0.685 10:0.283 11:1.523 12:-0.881 13:-0.842 14:-2.212 15:-1.876 
1 1:-1.033 2:0.349 3:1.074 4:1.602 5:0.034 6:0.571 7:-1.486 8:-0.636 9:0.68 10:0.329 11:0.542 12:0.651 13:-1.415 14:-0.752 15:-0.681 
1 1:2.031 2:-0.507 3:-0.642 4:-0.804 5:-1.216 6:0.093 7:0.603 8:-0.007 9:2.016 10:0.55 11:-0.145 12:0.075 13:0.59 14:-0.354 15:0.706 
0.8477441054220856 1:-1.075 2:-0.347 3:-2.002 4:-2.218 5:1.438 6:0.026 7:-0.665 8:-0.172 9:0.883 10:0.009 11:1.379 12:0.494 13:0.213 14:-1.965 15:-0.98 
1 1:-1.117 2:0.423 3:0.09 4:1.49 5:0.551 6:-0.374 7:0.461 8:1.029 9:-0.627 10:0.859 11:-0.531 12:0.376 13:0.365 14:0.466 15:0.663 
1 1:0.61 2:-0.868 3:-0.73 4:-0.325 5:0.874 6:0.091 7:1.449 8:0.352 9:1.11 10:0.127 11:0.415 12:0.79 13:-0.882 14:-0.481 15:-0.469 
1 1:-0.319 2:1.332 3:1.467 4:0.419 5:1.169 6:-1.55 7:1.905 8:0.616 9:1.171 10:1.472 11:0.182 12:-0.532 13:0.167 14:-0.045 15:0.639 
1 1:0.664 2:-0.597 3:-0.285 4:1.377 5:-1.237 6:0.96 7:0.277 8:-2.697 9:-0.944 10:-1.139 11:-1.782 12:0.639 13:-0.391 14:-0.105 15:0.978 
1 1:-1.227 2:1.875 3:-0.11 4:1.705 5:0.831 6:-1.651 7:0.149 8:0.586 9:-0.29 10:1.235 11:-1.056 12:-1.646 13:0.405 14:-0.426 15:-0.254 
1 1:-0.453 2:-3.106 3:-0.93 4:-0.4 5:0.922 6:0.989 7:-0.821 8:-1.485 9:-0.299 10:0.307 11:0.542 12:-0.689 13:0.078 14:0.709 15:0.582 
0.2532434496583547 1:0.462 2:-0.012 3:-0.805 4:-0.234 5:-0.316 6:1.148 7:-1.607 8:-1.029 9:-0.224 10:-1.72 11:0.306 12:1.746 13:-2.576 14:-1.973 15:-1.274 
0.7779524023837758 1:0.298 2:-0.95 3:1.158 4:1.705 5:1.586 6:0.962 7:-1.086 8:-0.727 9:-0.404 10:0.039 11:-0.338 12:-1.064 13:1.219 14:1.358 15:0.863 
1 1:1.712 2:-0.809 3:0.413 4:1.429 5:-1.007 6:0.165 7:1.973 8:0.081 9:0.941 10:1.305 11:0.4 12:0.703 13:-0.18 14:0.948 15:0.721 
0.8194044754385233 1:-1.623 2:-0.31 3:-0.587 4:-0.079 5:-1.354 6:0.264 7:-1.161 8:1.039 9:1.657 10:-1.064 11:-0.338 12:0.721 13:-0.614 14:-0.539 15:-0.817 
0.9902757120824317 1:-1.345 2:-1.885 3:-0.503 4:-0.622 5:0.855 6:0.203 7:-0.41 8:0.725 9:1.281 10:0.092 11:0.048 12:-0.788 13:0.291 14:1.247 15:1.826 
0.03185793237102424 1:0.626 2:-0.641 3:1.348 4:0.941 5:-0.093 6:0.944 7:-0.895 8:0.565 9:-0.453 10:-0.749 11:-0.095 12:0.311 13:0.504 14:0.924 15:0.479 
1 1:-1.335 2:0.464 3:-0.233 4:0.309 5:1.643 6:-0.358 7:0.167 8:0.295 9:-2.297 10:-0.615 11:1.924 12:0.572 13:1.511 14:-0.089 15:0.627 
1 1:1.046 2:-0.887 3:0.051 4:-1.186 5:1.172 6:0.926 7:-1.232 8:-0.26 9:-0.456 10:-1.564 11:1.473 12:0.492 13:-1.169 14:-0.571 15:0.333 
1 1:0.39 2:1.674 3:0.903 4:0.24 5:0.122 6:0.21 7:-1.256 8:-0.578 9:1.139 10:-1.365 11:-1.852 12:-1.084 13:-0.806 14:-1.796 15:0.33 
0.3626987718977734 1:-1.471 2:0.911 3:0.89 4:1.772 5:-1.364 6:0.888 7:-0.212 8:-0.203 9:-0.16 10:0.429 11:2.16 12:-0.77 13:0.687 14:-0.105 15:-0.021 
1 1:-1.159 2:-0.042 3:1.178 4:-2.042 5:0.297 6:1.101 7:-1.532 8:-1.381 9:-0.944 10:-0.685 11:-1.713 12:-1.378 13:-0.013 14:-1.778 15:0.557 
0.8242272230143746 1:1.38 2:0.963 3:-0.196 4:1.223 5:-1.309 6:0.129 7:0.741 8:0.9 9:0.653 10:1.391 11:-0.49 12:0.858 13:1.206 14:1.693 15:1.408 
1 1:-2.078 2:0.021 3:1.342 4:-0.17 5:-0.352 6:0.1 7:-0.198 8:1.171 9:0.328 10:-0.123 11:-0.52 12:0.668 13:0.859 14:1.502 15:-0.339 
1 1:0.722 2:-0.235 3:-0.558 4:-0.2 5:-1.037 6:0.167 7:-0.704 8:0.359 9:-1.091 10:-1.166 11:-0.769 12:-1.171 13:0.309 14:1.102 15:1.184 
1 1:1.434 2:0.595 3:-0.867 4:-0.167 5:0.913 6:-0.134 7:0.369 8:1.083 9:0.394 10:0.13 11:0.255 12:0.804 13:-0.903 14:0.452 15:0.951 
1 1:2.075 2:-2.495 3:-1.053 4:-2.066 5:1.737 6:0.432 7:-0.746 8:0.271 9:-0.646 10:0.611 11:-0.104 12:0.421 13:-0.477 14:-0.26 15:-0.681 
1 1:-0.787 2:0.725 3:1.514 4:0.934 5:-0.657 6:0.25 7:1.509 8:-0.179 9:0.419 10:-0.01 11:0.126 12:0.858 13:0.844 14:1.189 15:0.715 
0.04480391770290979 1:0.43 2:-0.288 3:-1.771 4:1.144 5:-2.441 6:0.565 7:1.551 8:-2.176 9:0.721 10:0.348 11:1.643 12:0.322 13:0.061 14:0.729 15:2.059 
1 1:-0.042 2:1.064 3:0.508 4:0.2 5:0.167 6:0.169 7:-0.814 8:1.638 9:-0.031 10:0.719 11:0.315 12:0.922 13:1.462 14:0.136 15:0.669 
1 1:-0.413 2:0.598 3:1.383 4:1.271 5:0.538 6:0.091 7:1.442 8:0.674 9:0.822 10:0.404 11:-0.26 12:-0.921 13:-0.348 14:0.377 15:-0.284 
1 1:1.452 2:0.33 3:-2.604 4:-1.99 5:-0.941 6:0.246 7:0.344 8:0.488 9:-0.37 10:0.547 11:-1.957 12:-1.178 13:-1.592 14:-1.758 15:0.539 
0.4370626976506247 1:-0.617 2:-0.072 3:-0.355 4:-0.391 5:1.073 6:0.093 7:-1.086 8:1.063 9:-1.257 10:-0.47 11:-0.115 12:-0.871 13:-1.44 14:-1.945 15:-1.537 
1 1:-1.317 2:0.051 3:-0.074 4:0.397 5:-0.168 6:0.625 7:-0.208 8:0.383 9:0.612 10:0.082 11:0.441 12:1.968 13:-1.615 14:-0.936 15:-0.454 
1 1:1.088 2:0.275 3:0.185 4:-1.22 5:-1.261 6:0.156 7:0.018 8:0.136 9:1.708 10:-0.604 11:-0.557 12:0.436 13:-0.015 14:0.711 15:-0.342 
1 1:-0.407 2:-0.317 3:-0.094 4:-0.798 5:1.248 6:0.477 7:-0.785 8:0.674 9:-0.629 10:0.006 11:-0.353 12:-0.946 13:1.561 14:0.128 15:0.27 
1 1:1.528 2:0.595 3:-0.278 4:-1.432 5:0.234 6:0.053 7:-0.417 8:-0.771 9:0.875 10:0.41 11:0.8 12:0.208 13:-0.763 14:-1.71 15:0.6 
1 1:-1.271 2:1.149 3:-0.41 4:0.176 5:0.249 6:0.522 7:-0.492 8:1.005 9:-0.561 10:0.41 11:1.344 12:1.575 13:-2.502 14:-0.862 15:-1.619 
1 1:-0.399 2:0.375 3:1.383 4:0.124 5:1.607 6:0.064 7:0.011 8:1.611 9:-0.756 10:0.657 11:0.048 12:0.628 13:-0.223 14:-1.439 15:-0.747 
0.8795164949446034 1:-1.133 2:-2.343 3:-2.982 4:-1.936 5:0.261 6:-2.67 7:0.762 8:1.645 9:-0.07 10:1.577 11:0.126 12:0.959 13:1.214 14:0.383 15:0.763 
1 1:-1.007 2:-1.397 3:-0.36 4:1.262 5:0.934 6:-0.535 7:-0.332 8:1.445 9:1.417 10:-0.938 11:-1.121 12:-0.517 13:-0.104 14:1.408 15:1.238 
1 1:-1.025 2:-0.113 3:0.994 4:-0.874 5:-1.315 6:1.13 7:1.41 8:-1.658 9:-1.156 10:0.243 11:0.182 12:-0.921 13:1.358 14:0.323 15:1.496 
1 1:0.408 2:-0.094 3:-0.23 4:1.089 5:0.617 6:0.057 7:-1.518 8:0.643 9:-1.359 10:-0.758 11:-0.531 12:-0.088 13:-1.648 14:-1.547 15:-0.632 
1 1:-0.893 2:0.386 3:-0.492 4:-0.155 5:0.65 6:0.54 7:1.027 8:-0.301 9:0.641 10:1.074 11:-0.059 12:-0.128 13:0.134 14:0.663 15:-1.667 
1 1:-0.987 2:-0.708 3:1.205 4:-0.379 5:-0.096 6:0.416 7:1.038 8:0.643 9:-1.359 10:-0.096 11:-0.728 12:-1.149 13:-0.659 14:-0.059 15:1.299 
1 1:0.242 2:0.07 3:0.974 4:0.176 5:-0.056 6:0.612 7:-0.042 8:-0.832 9:-1.232 10:-1.532 11:-1.052 12:-1.113 13:-1.08 14:-1.75 15:-0.084 
1 1:-1.015 2:-0.369 3:-0.503 4:0.209 5:-1.415 6:0.217 7:0.089 8:-0.372 9:1.549 10:-1.298 11:0.952 12:-0.799 13:-1.524 14:-0.718 15:-1.11 
1 1:-0.539 2:-0.961 3:-0.737 4:-1.041 5:0.961 6:0.531 7:1.743 8:-1.225 9:0.316 10:-0.265 11:0.4 12:0.015 13:-0.003 14:0.492 15:-0.251 
1 1:0.322 2:0.074 3:0.849 4:-1.217 5:0.997 6:0.443 7:-0.396 8:0.159 9:0.797 10:-0.128 11:-0.572 12:0.928 13:-1.356 14:-0.045 15:0.315 
0.9878579367170925 1:1.17 2:-1.97 3:-1.057 4:-1.945 5:-0.914 6:0.915 7:-0.261 8:-0.413 9:-1.174 10:0.251 11:-0.338 12:2.096 13:-0.855 14:-0.322 15:0.058 
1 1:1.396 2:0.569 3:0.81 4:-0.215 5:-0.367 6:-0.98 7:0.787 8:-1.404 9:-1.098 10:-0.104 11:0.975 12:0.676 13:-1.432 14:-0.748 15:-2.13 
1 1:0.25 2:-0.224 3:0.035 4:0.076 5:0.406 6:0.522 7:1.962 8:-1.655 9:-1 10:0.692 11:-0.572 12:0.707 13:0.844 14:-0.02 15:1.393 
1 1:-0.727 2:0.49 3:-1.285 4:-0.055 5:-1.421 6:-0.354 7:1.123 8:1.293 9:0.553 10:1.327 11:0.048 12:0.638 13:-0.71 14:-0.237 15:-0.526 
0.4496692177250406 1:-1.605 2:0.461 3:1.746 4:1.851 5:-0.05 6:0.122 7:0.588 8:0.752 9:-0.563 10:-0.456 11:-0.104 12:-1.033 13:0.453 14:-0.513 15:1.52 
0.9389493969639319 1:-0.383 2:-2.778 3:-2.311 4:-1.019 5:-1.717 6:-0.657 7:1.944 8:1.117 9:0.084 10:0.687 11:-1.147 12:0.146 13:0.649 14:1.661 15:1.087 
0.1888206368966314 1:0.502 2:0.39 3:-1.648 4:-0.555 5:-1.838 6:0.059 7:-0.215 8:0.819 9:1.725 10:0.348 11:1.744 12:0.837 13:-0.56 14:-0.111 15:-0.278 
1 1:1.941 2:0.517 3:-2.134 4:-0.319 5:0.406 6:0.288 7:0.677 8:-0.433 9:1.105 10:-0.932 11:2.003 12:0.436 13:-0.089 14:-0.324 15:-1.846 
0.7368288190339504 1:-0.851 2:-0.969 3:0.54 4:1.559 5:-0.766 6:0.993 7:-1.168 8:0.461 9:-1.65 10:-0.244 11:0.441 12:0.371 13:-1.237 14:0.09 15:0.76 
0.4593585433048119 1:1.628 2:1.198 3:-0.976 4:0.13 5:-0.144 6:0.163 7:1.477 8:1.236 9:0.621 10:1.028 11:-0.64 12:0.293 13:0.765 14:0.174 15:1.807 
0.364197010163173 1:-0.719 2:0.129 3:1.158 4:-0.543 5:-0.998 6:1.101 7:-2.439 8:-0.064 9:-1.462 10:-1.392 11:2.003 12:0.523 13:-1.412 14:-1.157 15:-2.261 
0.4949660343898427 1:-1.277 2:-1.069 3:0.035 4:-0.977 5:-2.257 6:1.103 7:0.376 8:-2.541 9:-0.031 10:-0.088 11:1.385 12:-0.718 13:0.963 14:0.964 15:2.228 
0.6885676679859138 1:-2.128 2:0.263 3:1.383 4:-0.042 5:-0.455 6:1.043 7:0.256 8:-0.233 9:0.372 10:1.493 11:2.16 12:0.804 13:-1.41 14:0.779 15:-1.797 
0.09730253257781779 1:-1.399 2:0.074 3:1.383 4:-0.018 5:1.248 6:1.054 7:-1.515 8:-0.558 9:0.309 10:1.45 11:-0.64 12:0.558 13:-0.489 14:-1.234 15:-0.632 
0.670204998780652 1:-0.287 2:0.349 3:-0.444 4:1.544 5:1.121 6:1.058 7:-0.251 8:-1.621 9:-0.358 10:0.264 11:0.48 12:0.46 13:-0.449 14:-0.726 15:1.901 
1 1:-0.391 2:-0.068 3:-0.812 4:-0.103 5:0.834 6:0.048 7:-1.005 8:1.09 9:1.696 10:-1.013 11:-0.651 12:-1.176 13:1.277 14:0.024 15:0.339 
1 1:-0.139 2:-0.079 3:-0.867 4:-0.191 5:0.046 6:0.908 7:-0.403 8:-0.301 9:-0.517 10:0.151 11:-0.054 12:0.585 13:-0.801 14:0.488 15:-0.242 
0.05507429563007386 1:0.248 2:-1.241 3:-2.207 4:0.473 5:-0.856 6:-0.515 7:1.739 8:-0.765 9:0.653 10:1.701 11:0.255 12:0.713 13:1.011 14:0.16 15:2.346 
0.03200315605637883 1:-0.829 2:1.101 3:-0.23 4:1.399 5:1.139 6:-0.841 7:-0.006 8:1.493 9:0.629 10:0.106 11:-0.353 12:-1.3 13:-0.814 14:-1.712 15:-0.569 
0.2163753436396444 1:-0.415 2:0.9 3:-0.517 4:0.033 5:-0.114 6:0.187 7:0.348 8:1.1 9:-1.537 10:0.638 11:-0.338 12:-2.352 13:-0.763 14:-1.216 15:-2.442 
1 1:-0.435 2:0.673 3:1.514 4:2.027 5:-0.37 6:-0.789 7:0.238 8:0.965 9:1.825 10:-0.774 11:-0.762 12:0.568 13:1.009 14:0.681 15:1.157 
1 1:0.554 2:-1.055 3:-1.346 4:-0.164 5:0.074 6:0.046 7:-1.147 8:1.412 9:-0.172 10:-0.838 11:0.542 12:-0.811 13:-1.232 14:0.09 15:1.278 
0.1780715341414511 1:-0.799 2:1.581 3:0.376 4:-0.273 5:-0.56 6:0.553 7:0.05 8:1.205 9:1.479 10:1.198 11:-1.692 12:-2.151 13:2.025 14:1.074 15:1.599 
1 1:0.344 2:0.561 3:0.144 4:-0.655 5:-0.216 6:0.993 7:-0.661 8:-0.287 9:0.321 10:0.466 11:0.441 12:-0.666 13:0.93 14:-0.189 15:0.6 
1 1:-0.052 2:-1.747 3:-1.094 4:-0.54 5:-0.672 6:-0.576 7:-1.89 8:-1.54 9:-1.967 10:-1.54 11:-1.041 12:0.492 13:0.213 14:-0.306 15:-0.451 
1 1:-0.947 2:-0.556 3:1.562 4:-0.13 5:0.584 6:0.56 7:0.341 8:-0.196 9:-0.348 10:0.703 11:-0.52 12:-1.144 13:-1.554 14:1.119 15:-0.284 
1 1:-1.329 2:0.714 3:1.199 4:1.356 5:-0.283 6:0.021 7:-0.226 8:-0.829 9:-1.279 10:-0.128 11:-1.041 12:0.22 13:0.134 14:-0.035 15:0.503 
0.218708051190956 1:-1.089 2:-0.109 3:0.994 4:1.274 5:0.348 6:1.173 7:-1.904 8:-1.191 9:-1.486 10:-2.132 11:-1.93 12:-1.236 13:1.186 14:-0.179 15:0.088 
1 1:-0.421 2:-0.764 3:-0.719 4:0.2 5:1.607 6:0.167 7:-0.722 8:1.117 9:-0.27 10:-2.196 11:1.344 12:0.703 13:0.334 14:-0.292 15:-0.357 
1 1:-0.963 2:0.018 3:1.158 4:-0.846 5:-0.917 6:-0.042 7:-0.658 8:0.122 9:0.555 10:0.345 11:-0.104 12:0.338 13:0.92 14:-0.133 15:-0.995 
1 1:-1.189 2:1.068 3:0.158 4:-0.082 5:0.967 6:0.102 7:1.357 8:0.339 9:-0.461 10:0.617 11:1.617 12:0.63 13:0.552 14:0.986 15:-0.457 
1 1:-0.257 2:0.796 3:1.342 4:0.209 5:0.074 6:0.1 7:0.857 8:-0.277 9:0.927 10:0.106 11:-0.338 12:1.583 13:1.201 14:-0.288 15:0.143 
1 1:-0.801 2:-0.131 3:-0.321 4:1.226 5:0.714 6:0.158 7:0.128 8:0.559 9:1.134 10:-0.908 11:1.149 12:-0.066 13:-0.996 14:-0.583 15:0.273 
1 1:2.053 2:0.234 3:1.178 4:-0.458 5:1.127 6:0.96 7:-0.941 8:-0.961 9:-0.649 10:-0.798 11:-0.754 12:0.982 13:-0.467 14:1.114 15:-0.493 
1 1:0.248 2:0.23 3:-0.623 4:0.792 5:1.607 6:0.084 7:1.456 8:-0.243 9:-0.553 10:0.297 11:0.182 12:0.436 13:-0.084 14:-0.336 15:-0.529 
1 1:-0.543 2:-0.582 3:-0.046 4:-0.237 5:0.092 6:1.067 7:0.447 8:-0.822 9:0.836 10:0.229 11:-0.651 12:-1.364 13:-0.081 14:-0.332 15:-0.535 
1 1:1.949 2:-2.737 3:-0.771 4:-0.752 5:-0.539 6:-0.019 7:-0.311 8:0.582 9:0.345 10:1.23 11:-0.239 12:0.605 13:1.049 14:-0.129 15:0.618 
1 1:-0.07 2:0.61 3:1.514 4:1.438 5:1.701 6:-0.425 7:0.981 8:0.765 9:0.878 10:1.149 11:1.28 12:1.529 13:0.41 14:0.924 15:-0.205 
1 1:0.944 2:0.118 3:1.33 4:-0.704 5:-0.071 6:0.015 7:1.3 8:-0.758 9:-0.084 10:0.162 11:-1.147 12:0.411 13:0.421 14:-0.173 15:1.408 
0.3990417867460489 1:-0.785 2:-2.246 3:-1.066 4:0.003 5:-1.668 6:1.043 7:0.521 8:0.64 9:-0.487 10:-0.838 11:-1.026 12:-1.552 13:0.993 14:0.213 15:1.326 
0.1658396054264031 1:-2.06 2:0.669 3:1.117 4:0.076 5:-1.219 6:1.117 7:-1.423 8:-0.69 9:-2.971 10:-0.817 11:-0.074 12:0.761 13:0.038 14:-1.989 15:-1.592 
0.1390165534095316 1:1.504 2:-1.162 3:1.205 4:1.72 5:1.317 6:0.091 7:1.481 8:0.45 9:0.939 10:1.45 11:-0.08 12:0.425 13:2.165 14:-0.318 15:1.953 
1 1:0.51 2:-2.264 3:0.576 4:-0.173 5:0.46 6:0.167 7:1.406 8:1.557 9:0.326 10:1.574 11:-1.93 12:-0.817 13:-0.804 14:0.743 15:0.146 
1 1:1.018 2:1.54 3:-0.11 4:0.194 5:1.043 6:0.372 7:-0.205 8:0.048 9:-0.268 10:1.098 11:-1.722 12:-0.968 13:-0.162 14:-0.346 15:0.5 
1 1:0.966 2:-0.965 3:-1.064 4:-0.018 5:-1.273 6:0.553 7:1.162 8:-0.802 9:-0.807 10:0.445 11:-0.095 12:0.297 13:1.855 14:1.335 15:0.721 
1 1:-1.197 2:-0.589 3:-0.503 4:1.839 5:0.587 6:0.437 7:1.275 8:-0.592 9:0.516 10:1.666 11:1.565 12:0.67 13:-0.644 14:-0.149 15:-0.378 
1 1:0.116 2:0.334 3:0.106 4:0.003 5:-0.739 6:0.975 7:0.716 8:-0.419 9:-0.087 10:0.523 11:0.497 12:0.854 13:0.413 14:0.829 15:-0.178 
1 1:0.056 2:-0.559 3:-0.094 4:-0.194 5:1.326 6:0.246 7:-2.053 8:-1.584 9:-1.474 10:-0.876 11:0.306 12:-1.117 13:-1.757 14:-1.973 15:-0.329 
1 1:-0.993 2:-1.49 3:-0.985 4:1.514 5:0.083 6:-0.497 7:1.477 8:1.347 9:0.546 10:1.577 11:-1.713 12:-0.807 13:1.282 14:-0.336 15:0.573 
1 1:-1.231 2:-0.046 3:-0.676 4:-0.006 5:-1.125 6:0.169 7:-0.927 8:0.45 9:-0.671 10:-0.755 11:-0.08 12:-0.91 13:-1.207 14:-0.239 15:-0.469 
1 1:-0.617 2:-0.894 3:-0.462 4:-0.501 5:0.049 6:0.158 7:0.174 8:0.826 9:0.795 10:1.545 11:1.458 12:0.738 13:0.015 14:0.417 15:-0.163 
1 1:0.322 2:0.692 3:-0.558 4:0.188 5:0.203 6:0.199 7:0.39 8:0.186 9:-0.502 10:-0.798 11:1.508 12:2.299 13:-0.444 14:-0.099 15:1.62 
0.4808219768868094 1:-0.923 2:0.021 3:0.467 4:1.741 5:1.009 6:0.414 7:-0.251 8:-1.469 9:-0.819 10:0.539 11:-0.561 12:0.293 13:1.447 14:0.602 15:2.679 
0.4205759388914719 1:-0.589 2:0.353 3:-1.38 4:-0.586 5:0.985 6:0.587 7:-2.499 8:0.674 9:-1.447 10:-1.317 11:0.441 12:-0.119 13:-0.026 14:-0.74 15:-1.752 
1 1:0.674 2:0.301 3:-1.927 4:-0.543 5:0.967 6:0.165 7:-0.219 8:0.853 9:0.822 10:1.141 11:-1.162 12:0.723 13:0.195 14:-0.175 15:0.615 
0.7798213195634566 1:1.58 2:-0.943 3:-0.914 4:1.277 5:0.563 6:0.194 7:-0.569 8:-0.646 9:-1.105 10:0.695 11:0.4 12:0.469 13:2.195 14:1.645 15:1.922 
1 1:-0.631 2:0.126 3:-0.142 4:0.061 5:1.471 6:-0.917 7:-2.056 8:0.169 9:-1.371 10:-1.494 11:-1.593 12:0.284 13:-1.564 14:0.399 15:1.269 
1 1:-0.837 2:0.647 3:-2.189 4:-1.156 5:-0.18 6:-1.283 7:0.822 8:0.593 9:0.841 10:0.805 11:-0.172 12:0.529 13:0.806 14:1.372 15:0.769 
1 1:0.596 2:1.235 3:0.106 4:-0.3 5:-3.066 6:1.117 7:-1.267 8:0.18 9:0.306 10:0.114 11:0.141 12:0.506 13:0.248 14:-0.153 15:-0.717 
1 1:-1.183 2:-0.176 3:1.042 4:-0.073 5:0.221 6:0.367 7:-1.008 8:0.213 9:-0.421 10:-0.341 11:0.182 12:-1.623 13:0.015 14:-1.826 15:-1.925 
1 1:-0.879 2:0.822 3:0.049 4:1.074 5:-0.98 6:-0.562 7:1.863 8:0.9 9:0.812 10:1.555 11:0.864 12:0.527 13:-0.505 14:1.85 15:2.225 
1 1:0.048 2:-1.252 3:-2.434 4:0.061 5:-0.083 6:0.199 7:-0.417 8:-1.766 9:-0.233 10:0.394 11:0.857 12:1.001 13:1.579 14:1.542 15:-0.221 
0.7048206989179236 1:0.68 2:0.52 3:-0.149 4:-0.71 5:1.145 6:1.076 7:0.199 8:-0.358 9:-1.156 10:0.154 11:0.126 12:0.721 13:0.314 14:0.699 15:-0.529 
1 1:1.442 2:-0.008 3:-0.333 4:-1.201 5:-0.141 6:1.124 7:-0.293 8:-1.276 9:-1.491 10:-0.696 11:2.059 12:0.473 13:-0.122 14:0.556 15:0.088 
1 1:-0.545 2:-1.326 3:-0.635 4:1.441 5:0.113 6:0.282 7:0.889 8:-0.338 9:-0.673 10:0.055 11:-0.469 12:-0.881 13:0.844 14:0.867 15:1.39 
0.6974730328251899 1:0.348 2:-1.2 3:-0.462 4:-0.998 5:0.403 6:1.216 7:-2.014 8:-1.025 9:-0.675 10:-1.952 11:0.025 12:2.101 13:0.606 14:-0.501 15:0.079 
1 1:-0.327 2:0.934 3:-0.333 4:0.203 5:-0.159 6:0.071 7:-0.29 8:1.391 9:0.565 10:1.284 11:0.967 12:-0.759 13:-0.961 14:-1.81 15:-0.808 
1 1:0.176 2:0.919 3:-0.635 4:-0.161 5:-1.255 6:0.158 7:0.829 8:1.083 9:1.195 10:1.649 11:0.239 12:-0.314 13:-0.188 14:-0.77 15:-0.284 
1 1:1.572 2:0.617 3:-0.142 4:-0.792 5:-1.24 6:1.112 7:0.776 8:-1.161 9:-0.258 10:0.361 11:1.759 12:-0.846 13:1.865 14:0.867 15:-0.768 
0.3724261873357075 1:0.734 2:0.33 3:-1.228 4:1.214 5:-2.106 6:-0.466 7:0.981 8:0.965 9:1.986 10:1.604 11:1.617 12:1.887 13:-0.188 14:0.138 15:1.045 
1 1:-0.173 2:0.561 3:-0.867 4:-0.44 5:-1.216 6:0.196 7:0.341 8:-1.133 9:-1.142 10:0.178 11:1.123 12:1.575 13:1.287 14:1.454 15:0.918 
1 1:1.248 2:0.196 3:0.467 4:-0.276 5:0.255 6:0.571 7:-0.332 8:1.588 9:-0.492 10:-0.618 11:-0.016 12:0.313 13:-0.33 14:1.129 15:-0.172 
0.520616772255601 1:1.04 2:-1.047 3:-0.935 4:-0.185 5:-1.354 6:0.904 7:-1.607 8:0.183 9:0.746 10:-0.766 11:-1.406 12:-1.366 13:-0.88 14:0.52 15:-0.414 
0.9531472519637275 1:1.382 2:-0.016 3:1.342 4:-0.021 5:0.457 6:1.117 7:-1.203 8:-1.384 9:1.29 10:-1.424 11:-0.115 12:-0.811 13:0.996 14:-0.372 15:-0.505 
1 1:0.188 2:-0.221 3:1.467 4:-0.722 5:-0.455 6:0.699 7:-2.311 8:-1.296 9:-2.177 10:-1.957 11:0.141 12:-1.039 13:-1.022 14:-1.069 15:-2.527 
0.2891002264907312 1:-1.982 2:1.012 3:0.946 4:-1.022 5:-0.708 6:1.054 7:-1.217 8:-0.064 9:-0.717 10:-1.704 11:-0.312 12:-1.086 13:-0.416 14:-0.533 15:-1.168 
1 1:-1.243 2:0.282 3:-0.362 4:-0.34 5:-0.111 6:-0.547 7:0.181 8:1.029 9:0.558 10:1.44 11:-0.104 12:-0.689 13:0.578 14:-0.31 15:-0.124 
0.0993939520546452 1:-1.021 2:1.131 3:1.562 4:1.76 5:1.508 6:0.524 7:-0.35 8:-1.32 9:-0.609 10:-0.413 11:-0.625 12:-1.043 13:0.935 14:0.128 15:1.078 
0.8447869127915342 1:-1.944 2:-0.343 3:0.79 4:-0.962 5:-2.499 6:0.991 7:0.284 8:0.389 9:-1.716 10:0.493 11:2.003 12:0.922 13:-1.432 14:-0.047 15:-0.868 
0.6179673129667007 1:-1.451 2:0.948 3:-0.278 4:1.147 5:-0.171 6:1.067 7:-2.042 8:-0.264 9:-1.288 10:-2.094 11:0.3 12:-0.913 13:0.304 14:1.846 15:0.33 
1 1:-0.993 2:0.539 3:1.267 4:1.848 5:-0.02 6:0.127 7:-1.982 8:-0.23 9:-1.323 10:-0.663 11:0.497 12:0.564 13:-0.325 14:-0.338 15:-1.059 
1 1:-0.789 2:1.544 3:-0.23 4:1.663 5:1.559 6:-0.419 7:0.702 8:0.288 9:-0.092 10:0.375 11:-0.496 12:1.682 13:-0.87 14:0.89 15:-0.09 
1 1:-1.459 2:-1.293 3:0.051 4:-0.079 5:-1.291 6:-0.026 7:1.222 8:0.329 9:-0.116 10:0.445 11:-1.93 12:-2.466 13:0.905 14:-0.356 15:-0.98 
1 1:-0.807 2:0.52 3:1.342 4:-1.022 5:0.695 6:0.046 7:-0.98 8:0.85 9:1.432 10:-0.435 11:0.141 12:0.374 13:-0.317 14:0.697 15:-0.363 
1 1:2.039 2:-1.081 3:-2.086 4:0.413 5:-1.306 6:-0.996 7:-0.318 8:1.117 9:1.503 10:-0.897 11:0.306 12:-0.867 13:1.328 14:1.396 15:0.939 
0.5852108373051154 1:-0.295 2:0.472 3:-0.617 4:1.514 5:-0.893 6:1.101 7:1.105 8:-0.876 9:-2.382 10:-0.233 11:0.497 12:-0.912 13:-1.105 14:-0.788 15:-0.308 
0.3232908269586569 1:-0.763 2:1.388 3:-0.083 4:-0.234 5:-1.27 6:1.099 7:0.482 8:-1.387 9:-0.224 10:0.267 11:1.344 12:1.051 13:0.157 14:0.399 15:2.062 
0.2268024625509525 1:-1.489 2:0.818 3:0.049 4:1.69 5:0.937 6:1.227 7:-0.137 8:-2.142 9:-0.255 10:0.006 11:-0.275 12:0.434 13:0.37 14:-0.308 15:-0.572 
1 1:1.04 2:0.222 3:1.698 4:1.556 5:0.185 6:0.407 7:0.245 8:-0.89 9:-0.905 10:-1.344 11:0.182 12:0.982 13:-1.41 14:-0.547 15:-0.917 
0.3510473273283793 1:-1.419 2:2.173 3:0.626 4:1.529 5:-0.035 6:0.183 7:-0.403 8:0.295 9:-1.12 10:-0.338 11:1.666 12:2.088 13:0.808 14:-1.216 15:-1.289 
0.1018274832465285 1:0.436 2:-0.842 3:-0.594 4:2.039 5:1.891 6:0.057 7:-0.761 8:0.951 9:-0.629 10:-1.363 11:-1.93 12:-1.79 13:-0.637 14:-0.774 15:-0.378 
0.1444700291713646 1:-0.751 2:-0.276 3:1.467 4:-0.843 5:-0.754 6:0.895 7:-0.095 8:0.471 9:-0.431 10:-0.171 11:-1.026 12:-0.91 13:0.053 14:-0.326 15:-1.689 
1 1:0.314 2:-0.894 3:-1.516 4:0.018 5:0.771 6:0.558 7:-1.125 8:-0.115 9:-0.756 10:-1.416 11:-0.016 12:1.96 13:1.049 14:1.542 15:-0.254 
0.2325630145327383 1:1.26 2:-0.206 3:1.342 4:0.467 5:1.182 6:0.113 7:-0.215 8:1.202 9:1.75 10:1.211 11:0.551 12:-0.939 13:-1.425 14:-0.346 15:-1.259 
0.2726060169404273 1:-0.389 2:-1.107 3:0.276 4:-0.079 5:-1.412 6:0.886 7:0.22 8:0.376 9:-0.38 10:0.872 11:0.963 12:2.303 13:0.063 14:1.008 15:0.639 
1 1:-0.239 2:0.219 3:-0.519 4:-0.68 5:-0.25 6:0.026 7:1.516 8:1.175 9:0.011 10:1.378 11:-0.368 12:-0.095 13:0.902 14:-1.479 15:-1.567 
0.6998082139682136 1:0.152 2:-1.702 3:0.144 4:-0.989 5:0.526 6:1.126 7:1.898 8:0.498 9:0.707 10:0.617 11:-0.312 12:0.715 13:0.309 14:-0.726 15:-1.622 
1 1:-0.391 2:-1.032 3:-0.326 4:-2.13 5:1.399 6:0.282 7:2.036 8:-0.44 9:1.073 10:-0.287 11:0.385 12:0.678 13:-0.796 14:-0.071 15:0.403 
0.4114428324914643 1:1.636 2:1.161 3:-0.451 4:-0.088 5:0.52 6:1.186 7:-1.058 8:-2.501 9:0.472 10:-0.276 11:1.666 12:0.804 13:0.775 14:1.81 15:2.219 
1 1:0.396 2:-0.507 3:-1.23 4:-0.158 5:-1.563 6:0.183 7:-0.077 8:0.799 9:1.911 10:0.786 11:-0.16 12:0.858 13:0.147 14:0.572 15:1.02 
0.7252052428535434 1:0.266 2:-1.218 3:-1.066 4:0.252 5:-1.176 6:0.149 7:0.401 8:0.799 9:2.011 10:0.082 11:0.141 12:0.901 13:0.791 14:0.323 15:1.03 
1 1:-0.06 2:-2.168 3:0.401 4:1.92 5:0.14 6:1.02 7:1.583 8:0.802 9:0.878 10:1.666 11:0.441 12:0.589 13:0.55 14:-0.298 15:-1.225 
1 1:0.412 2:0.036 3:-1.516 4:-0.224 5:0.228 6:0.14 7:0.132 8:-0.375 9:-0.392 10:0.361 11:0.182 12:0.311 13:0.669 14:-0.143 15:0.645 
0.01967100168362815 1:1.66 2:-0.276 3:-0.326 4:-2.303 5:-0.123 6:0.684 7:1.916 8:-0.078 9:0.665 10:0.049 11:-0.048 12:-0.743 13:1.125 14:0.492 15:1.677 
0.4909829769558501 1:-2.616 2:-1.241 3:-1.253 4:-0.358 5:-2.466 6:1.049 7:-2.573 8:-0.534 9:-1.384 10:-0.725 11:-0.157 12:0.419 13:-1.25 14:-0.784 15:-1.21 
1 1:-0.413 2:0.773 3:-0.362 4:-0.895 5:1.339 6:0.266 7:-1.32 8:-2.169 9:-0.656 10:-0.809 11:-0.572 12:-1.01 13:-1.394 14:-1.945 15:-1.334 
1 1:1.658 2:-2.008 3:-1.175 4:-2.448 5:-1.747 6:0.248 7:-1.235 8:0.85 9:1.432 10:-0.892 11:0.8 12:-0.678 13:0.58 14:1.344 15:-0.278 
1 1:1.548 2:-0.887 3:-0.846 4:-1.341 5:-0.207 6:-0.03 7:0.217 8:0.633 9:-0.895 10:0.079 11:-0.312 12:0.481 13:-0.979 14:-0.79 15:0.342 
0.7685046902339707 1:-0.141 2:-0.425 3:-0.86 4:0.306 5:-0.645 6:0.953 7:1.204 8:-0.199 9:1.715 10:-1.376 11:-0.52 12:-0.942 13:0.603 14:1.068 15:-0.13 
1 1:-0.921 2:-0.708 3:-0.444 4:-0.394 5:0.907 6:0.024 7:-0.339 8:0.711 9:0.089 10:1.243 11:-0.275 12:0.297 13:0.322 14:0.572 15:0.666 
1 1:0.956 2:0.371 3:-0.278 4:-0.959 5:0.517 6:0.154 7:-0.329 8:1.225 9:0.282 10:1.386 11:-0.61 12:0.214 13:0.418 14:1.323 15:-0.684 
1 1:0.418 2:-0.232 3:-0.58 4:-1.262 5:-1.641 6:0.048 7:1.541 8:-0.426 9:-0.568 10:0.687 11:1.862 12:0.634 13:0.299 14:1.108 15:0.164 
1 1:1.126 2:-0.317 3:-2.816 4:-0.567 5:0.424 6:0.172 7:-0.534 8:-0.629 9:-0.075 10:1.321 11:0.8 12:0.413 13:0.362 14:0.912 15:-0.23 
1 1:-0.835 2:2.039 3:1.562 4:1.107 5:0.092 6:0.279 7:-0.456 8:-0.057 9:-0.319 10:0.219 11:0.025 12:1.954 13:-0.038 14:-0.525 15:0.678 
1 1:1.3 2:-0.723 3:0.946 4:-0.44 5:-1.934 6:0.178 7:-0.807 8:-0.054 9:-0.143 10:1.163 11:2.018 12:0.736 13:0.813 14:1.372 15:0.645 
1 1:1.324 2:0.811 3:1.105 4:-1.156 5:1.571 6:-0.58 7:1.282 8:1.039 9:1.708 10:0.052 11:0.593 12:-0.755 13:-0.114 14:-0.105 15:0.633 
1 1:0.168 2:-1.669 3:-2.086 4:-0.306 5:0.134 6:-0.01 7:-0.07 8:0.657 9:0.739 10:0.326 11:0.182 12:0.4 13:-1.09 14:0.534 15:-0.078 
0.9389783545342102 1:-0.985 2:0.531 3:1.383 4:0.14 5:-1.415 6:1.054 7:2.079 8:0.153 9:-0.482 10:-0.088 11:0.857 12:0.001 13:-0.705 14:-0.356 15:0.252 
0.7574599970585844 1:-0.971 2:-0.321 3:1.514 4:-0.622 5:0.372 6:1.112 7:-0.846 8:-0.04 9:-2.009 10:-2.059 11:-0.469 12:-0.113 13:-0.827 14:1.187 15:-0.675 
1 1:1.779 2:-0.101 3:0.576 4:-0.297 5:-1.191 6:-0.187 7:0.156 8:1.164 9:0.314 10:-0.701 11:0.048 12:0.661 13:1.13 14:2.292 15:1.456 
1 1:-0.733 2:0.773 3:1.348 4:0.592 5:-0.047 6:-0.556 7:1.318 8:0.863 9:0.902 10:-0.62 11:-1.406 12:2.235 13:1.184 14:1.068 15:-0.163 
1 1:-0.241 2:-0.232 3:-0.333 4:-0.164 5:0.855 6:-1.748 7:0.068 8:0.799 9:1.986 10:-0.085 11:1.874 12:0.85 13:1.353 14:0.602 15:0.097 
1 1:-0.879 2:1.079 3:-0.196 4:0.64 5:1.348 6:0.109 7:-0.931 8:-0.098 9:-0.329 10:-0.776 11:0.551 12:-0.755 13:-0.964 14:-0.338 15:-0.314 
1 1:-1.359 2:0.625 3:1.521 4:-0.018 5:-0.331 6:-0.625 7:-0.488 8:1.445 9:-0.575 10:-0.897 11:-0.651 12:-1.136 13:-0.36 14:-0.346 15:-1.056 
1 1:-0.383 2:-0.537 3:-0.742 4:-1.866 5:0.91 6:0.266 7:2.341 8:1.019 9:0.665 10:1.784 11:0.8 12:0.721 13:-1.23 14:-0.537 15:-1.888 
0.7908885140191232 1:1.162 2:0.751 3:-0.294 4:0.316 5:-1.01 6:0.266 7:-0.191 8:1.293 9:1.637 10:1.254 11:-0.233 12:-0.968 13:1.338 14:0.377 15:0.451 
1 1:-0.993 2:0.003 3:0.185 4:-0.525 5:0.535 6:0.091 7:0.333 8:-2.01 9:0.314 10:-0.486 11:-0.25 12:-0.747 13:0.339 14:0.656 15:0.86 
1 1:0.488 2:2.08 3:-0.083 4:1.383 5:-0.829 6:-2.89 7:2.465 8:-0.656 9:0.878 10:1.418 11:1.473 12:0.473 13:0.791 14:1.074 15:0.421 
1 1:1.65 2:0.155 3:-1.121 4:1.365 5:-0.41 6:0.612 7:0.872 8:-0.057 9:-0.131 10:0.394 11:-0.115 12:-0.712 13:0.355 14:-0.623 15:-0.239 
0.9672458053576726 1:0.47 2:1.265 3:1.383 4:0.161 5:-0.633 6:0.077 7:0.606 8:1.039 9:1.632 10:-0.701 11:0.441 12:-0.683 13:-1.075 14:-1.734 15:0.751 
1 1:0.038 2:0.033 3:1.11 4:0.225 5:0.001 6:0.091 7:0.815 8:0.359 9:-0.705 10:0.727 11:-0.1 12:-1.074 13:1.599 14:1.888 15:0.339 
0.4219858326971804 1:1.636 2:0.375 3:-0.23 4:0.388 5:-0.198 6:0.455 7:-0.343 8:1.219 9:0.472 10:0.512 11:-0.233 12:-0.993 13:-0.401 14:0.942 15:0.79 
0.5494335597372811 1:0.66 2:-2.015 3:-0.996 4:-0.036 5:0.689 6:1.074 7:-1.805 8:-0.609 9:-1.345 10:-0.561 11:-0.338 12:-1.136 13:-0.538 14:-0.3 15:1.562 
1 1:-0.465 2:0.219 3:0.001 4:2.054 5:-1.653 6:0.311 7:0.443 8:0.227 9:-0.553 10:0.74 11:0.8 12:0.837 13:-0.753 14:-0.456 15:0.379 
1 1:0.642 2:0.029 3:1.383 4:-0.049 5:0.792 6:1.067 7:0.631 8:-2.626 9:-0.175 10:-0.467 11:0.441 12:2.111 13:-0.003 14:1.392 15:0.848 
1 1:-0.305 2:1.987 3:0.44 4:-0.309 5:0.372 6:-0.019 7:-0.3 8:-0.595 9:1.215 10:0.633 11:0.141 12:0.628 13:1.49 14:0.867 15:-0.214 
1 1:1.482 2:0.505 3:0.467 4:0.109 5:1.188 6:0.291 7:1.661 8:0.576 9:0.565 10:0.827 11:0.182 12:0.86 13:0.745 14:1.414 15:-0.653 
0.8727100571541008 1:0.146 2:-0.377 3:0.678 4:-0.228 5:1.468 6:0.401 7:-0.495 8:0.785 9:1.266 10:-1.277 11:-0.368 12:0.079 13:1.394 14:-0.384 15:0.203 
0.5018298258481551 1:-1.249 2:1.038 3:1.33 4:-0.055 5:1.532 6:-0.567 7:0.525 8:1.151 9:1.466 10:1.738 11:-0.651 12:-2.466 13:-2.599 14:-2.252 15:-1.507 
1 1:0.862 2:-0.098 3:0.331 4:0.3 5:0.859 6:-0.401 7:-0.633 8:1.347 9:0.465 10:1.421 11:-1.421 12:-1.236 13:0.73 14:-0.179 15:1.154 
1 1:-0.617 2:-0.433 3:-1.571 4:-0.228 5:0.381 6:-1.442 7:1.998 8:0.081 9:0.717 10:1.305 11:0.441 12:0.168 13:1.265 14:0.685 15:0.566 
0.1993337469762693 1:-1.978 2:-2.391 3:-0.669 4:-2.882 5:-1.08 6:-0.576 7:1.877 8:1.405 9:0.577 10:1.485 11:1.759 12:0.634 13:-0.73 14:1.309 15:0.793 
1 1:1.648 2:-2.119 3:0.726 4:-1.347 5:0.061 6:0.405 7:0.114 8:0.325 9:0.367 10:1.3 11:0.048 12:-0.134 13:1.275 14:0.06 15:1.871 
0.213266572440719 1:1.19 2:0.948 3:1.467 4:1.484 5:0.635 6:0.008 7:-0.031 8:0.873 9:0.597 10:1.155 11:-0.115 12:-1.091 13:-0.715 14:-1.216 15:0.963 
1 1:0.336 2:-1.542 3:-0.38 4:-0.525 5:0.774 6:0.129 7:-0.548 8:0.657 9:-0.595 10:-0.86 11:-0.636 12:-0.708 13:-0.903 14:0.534 15:-1.428 
1 1:0.806 2:-0.384 3:-0.614 4:-1.013 5:0.034 6:0.309 7:-0.329 8:0.362 9:-0.131 10:0.654 11:-0.275 12:0.622 13:1.229 14:0.761 15:0.494 
1 1:-0.453 2:0.517 3:-0.333 4:-0.246 5:0.366 6:-0.086 7:-0.244 8:-1.12 9:-0.981 10:0.1 11:1.508 12:0.725 13:0.996 14:-0.386 15:-0.211 
1 1:-0.381 2:1.73 3:-0.464 4:-0.173 5:0.315 6:0.053 7:0.556 8:1.093 9:1.701 10:-0.58 11:0.542 12:0.661 13:0.152 14:-0.081 15:0.23 
1 1:1.334 2:-0.075 3:-0.635 4:-0.719 5:1.822 6:0.113 7:0.394 8:1.442 9:-0.365 10:0.684 11:0.244 12:-0.49 13:-0.467 14:0.211 15:0.221 
1 1:0.078 2:-0.958 3:0.671 4:0.358 5:1.791 6:1.023 7:-0.577 8:-1.211 9:-1.054 10:-0.852 11:-0.353 12:-1.366 13:0.332 14:-0.081 15:-1.053 
0.1251647238814736 1:-0.799 2:-0.176 3:1.178 4:1.781 5:-0.331 6:0.205 7:0.606 8:1.07 9:1.637 10:1.515 11:0.126 12:1.094 13:0.238 14:0.968 15:0.536 
0.05432436650650006 1:1.736 2:-1.334 3:-0.812 4:0.388 5:0.611 6:0.975 7:0.964 8:-0.318 9:0.836 10:-1.494 11:1.523 12:0.612 13:0.808 14:1.03 15:0.034 
0.9300382609510079 1:0.332 2:0.457 3:-1.414 4:-0.267 5:-2.749 6:0.944 7:1.304 8:-0.362 9:0.895 10:0.437 11:-0.818 12:-0.712 13:0.585 14:1.848 15:0.349 
1 1:-0.255 2:-0.034 3:-0.719 4:-0.573 5:0.297 6:1.072 7:-0.789 8:-2.65 9:-1.87 10:-0.728 11:-0.546 12:0.284 13:2.197 14:0.128 15:0.763 
0.4042943173485141 1:-0.084 2:-1.304 3:-1.455 4:-0.956 5:-1.418 6:0.25 7:2.465 8:0.22 9:0.783 10:0.622 11:-0.054 12:-0.513 13:-0.492 14:-0.097 15:1.117 
1 1:0.658 2:0.721 3:0.215 4:-0.977 5:-1.237 6:1.119 7:-1.246 8:-1.282 9:-0.69 10:-1.449 11:0.222 12:-0.666 13:1.815 14:0.062 15:1.011 
0.2483437076198096 1:-1.243 2:0.625 3:-0.464 4:-1.298 5:1.505 6:-0.042 7:0.659 8:0.23 9:1.281 10:1.483 11:0.385 12:-0.548 13:1.166 14:-0.022 15:1.644 
1 1:0.292 2:-0.451 3:-2.386 4:-0.437 5:0.258 6:0.048 7:-0.552 8:-0.23 9:-0.402 10:0.375 11:1.149 12:0.427 13:-0.604 14:-0.545 15:-0.744 
1 1:0.194 2:-0.556 3:1.105 4:-0.856 5:0.276 6:0.991 7:-0.382 8:0.674 9:-1.611 10:-0.351 11:1.306 12:0.293 13:-1.083 14:-0.707 15:0.215 
1 1:-1.725 2:-0.574 3:1.11 4:1.772 5:-0.503 6:0.592 7:0.801 8:-0.433 9:-0.585 10:0.348 11:-0.353 12:-0.836 13:-1.05 14:-0.754 15:-0.547 
1 1:-0.835 2:-0.146 3:-0.41 4:-0.422 5:0.575 6:0.277 7:0.705 8:0.119 9:-0.387 10:1.047 11:-0.728 12:-1.231 13:-0.188 14:-0.105 15:0.639 
0.3030548899868427 1:0.056 2:0.081 3:0.862 4:1.751 5:1.592 6:0.055 7:-1.352 8:1.002 9:-0.68 10:-1.134 11:-0.769 12:-1.354 13:-1.298 14:1.609 15:-1.295 
0.05971997255513425 1:0.636 2:1.056 3:1.042 4:0.956 5:-1.557 6:1.058 7:-0.329 8:0.261 9:-1.503 10:-1.486 11:-0.636 12:0.506 13:-0.964 14:-0.782 15:-0.354 
0.1893389647797238 1:-1.117 2:1.35 3:1.042 4:1.047 5:1.351 6:-0.625 7:1.321 8:0.812 9:1.479 10:0.762 11:0.967 12:2.303 13:-0.254 14:1.382 15:0.669 
1 1:-0.665 2:0.974 3:-0.464 4:0.182 5:0.288 6:-0.205 7:0.372 8:0.951 9:-0.382 10:-0.12 11:0.4 12:0.106 13:-1.369 14:-1.258 15:-1.216 
1 1:0.206 2:1.44 3:0.726 4:-0.3 5:1.166 6:0.187 7:0.464 8:0.728 9:-1.008 10:-0.932 11:-0.115 12:-1.07 13:0.788 14:0.174 15:-1.095 
0.2173405613835225 1:0.286 2:-0.355 3:-2.761 4:-2.209 5:-0.645 6:0.214 7:-0.647 8:1.391 9:0.482 10:-0.951 11:-0.115 12:0.854 13:1.181 14:0.656 15:1.708 
0.726201718479573 1:1.018 2:-3.195 3:-0.355 4:-2.391 5:-0.684 6:0.385 7:1.116 8:0.518 9:-0.028 10:0.313 11:-0.16 12:-1.022 13:1.82 14:2.089 15:1.638 
1 1:0.426 2:-2.142 3:-1.03 4:-2.464 5:-1.116 6:0.192 7:1.764 8:0.515 9:1.132 10:0.668 11:0.212 12:-0.621 13:0.208 14:-0.149 15:0.118 
1 1:-1.309 2:-2.864 3:-0.444 4:-1.781 5:-0.787 6:0.178 7:1.275 8:-0.829 9:0.888 10:0.584 11:2.16 12:0.423 13:0.058 14:0.198 15:-0.087 
1 1:-0.601 2:0.673 3:0.98 4:-0.616 5:-0.425 6:0.138 7:0.089 8:0.427 9:-0.204 10:1.082 11:1.28 12:1.049 13:1.389 14:1.108 15:0.4 
0.1943082496866675 1:-0.245 2:0.107 3:-1.121 4:0.367 5:-0.89 6:0.311 7:0.542 8:1.205 9:1.632 10:1.41 11:1.28 12:0.342 13:0.928 14:0.968 15:-0.805 
1 1:-0.851 2:1.086 3:0.987 4:1.578 5:-0.008 6:0.03 7:0.574 8:-1.553 9:-0.631 10:0.219 11:-1.189 12:-0.674 13:0.862 14:1.211 15:0.733 
1 1:-0.999 2:0.848 3:1.698 4:1.66 5:-0.385 6:0.515 7:0.896 8:-0.91 9:-0.561 10:0.665 11:-0.728 12:-0.792 13:-0.233 14:-0.79 15:-0.366 
0.9723615931660982 1:-0.547 2:0.528 3:1.882 4:-0.124 5:0.107 6:0.1 7:0.624 8:1.469 9:-0.695 10:-0.357 11:0.055 12:0.993 13:1.011 14:0.12 15:-1.053 
1 1:0.016 2:-0.414 3:1.467 4:-0.161 5:0.575 6:-0.372 7:-0.368 8:1.205 9:1.479 10:-0.943 11:-0.11 12:-1.124 13:-0.19 14:-0.149 15:0.878 
1 1:0.226 2:-0.083 3:-0.903 4:0.376 5:-0.597 6:0.246 7:0.525 8:1.236 9:-0.644 10:-0.661 11:-0.625 12:0.429 13:-0.903 14:-0.79 15:-0.832 
1 1:-0.509 2:-0.764 3:0.678 4:-0.78 5:-2.173 6:-0.751 7:-1.621 8:-1.624 9:-1.254 10:-1.898 11:-0.145 12:-0.776 13:-0.614 14:-0.545 15:-0.024 
1 1:-2.056 2:1.142 3:0.946 4:0.118 5:0.4 6:0.046 7:-0.495 8:0.494 9:-0.441 10:0.321 11:-0.016 12:0.326 13:-0.155 14:-0.069 15:-0.245 
0.8467115681344524 1:0.502 2:-0.913 3:-0.712 4:-0.319 5:0.874 6:1.074 7:1.282 8:-0.802 9:-1.174 10:0.125 11:1.924 12:0.338 13:-0.974 14:-1.258 15:-0.78 
1 1:1.246 2:-0.597 3:-0.805 4:-0.255 5:-0.156 6:0.313 7:1.58 8:0.048 9:0.553 10:1.636 11:-1.957 12:-0.954 13:1.865 14:1.424 15:1.275 
0.3318409302761963 1:0.49 2:-1.189 3:-0.178 4:0.319 5:-1.81 6:1.126 7:-0.938 8:0.873 9:0.316 10:1.066 11:0.542 12:0.411 13:0.01 14:-0.772 15:-1.77 
1 1:1.534 2:0.014 3:-0.142 4:-0.455 5:-1.828 6:0.167 7:0.84 8:0.972 9:-1.491 10:0.929 11:0.025 12:2.111 13:-0.918 14:1.203 15:-0.55 
1 1:-1.203 2:0.401 3:-1.103 4:0.337 5:-1.034 6:0.14 7:-1.285 8:0.125 9:0.387 10:-1.306 11:-2.191 12:-0.952 13:-1.098 14:-0.029 15:0.237 
1 1:0.086 2:0.103 3:-1.121 4:-0.813 5:-0.262 6:0.145 7:-0.343 8:-0.43 9:0.69 10:-0.088 11:1.306 12:1.972 13:0.641 14:1.074 15:0.194 
0.3871809723038794 1:-1.517 2:0.617 3:0.494 4:0.027 5:-0.195 6:0.16 7:0.234 8:0.809 9:1.605 10:0.582 11:0.182 12:-0.794 13:-1.024 14:-2.228 15:-1.183 
0.7937012929532247 1:-0.591 2:1.082 3:-0.73 4:0.631 5:1.616 6:1.067 7:-0.336 8:-1.76 9:-1.286 10:-0.822 11:1.924 12:-0.747 13:-0.109 14:-0.404 15:-0.69 
0.5736301499515017 1:-1.285 2:1.056 3:0.594 4:1.059 5:-0.071 6:1.148 7:-1.996 8:-1.377 9:-0.114 10:-1.123 11:-0.636 12:0.465 13:0.882 14:0.602 15:1.323 
1 1:-0.985 2:-0.757 3:-0.451 4:-0.431 5:-1.089 6:0.948 7:-2.283 8:-0.453 9:-1.364 10:-1.169 11:0.542 12:0.51 13:0.53 14:-0.045 15:0.784 
1 1:0.198 2:0.904 3:0.276 4:1.256 5:-0.705 6:0.293 7:-0.424 8:0.295 9:-0.48 10:0.786 11:-1.052 12:-0.923 13:-0.604 14:-0.778 15:-0.681 
0.1802032066028745 1:-1.311 2:-0.046 3:1.43 4:0.458 5:1.031 6:0.019 7:-1.157 8:1.638 9:-0.675 10:-0.857 11:-0.353 12:0.454 13:-0.147 14:0.369 15:0.327 
0.8035970970377435 1:1.628 2:1.585 3:-0.944 4:-0.425 5:-0.727 6:1.045 7:0.142 8:0.765 9:-0.7 10:0.714 11:0.357 12:0.564 13:-0.003 14:0.198 15:-1.558 
1 1:0.79 2:-0.496 3:-0.444 4:0.2 5:-0.551 6:0.991 7:-1.412 8:-0.873 9:-1.327 10:-0.744 11:0.551 12:0.069 13:-0.566 14:-0.945 15:0.185 
1 1:-0.857 2:-0.139 3:-0.451 4:1.411 5:-0.539 6:-1.072 7:0.415 8:-0.237 9:-1.027 10:-0.895 11:0.244 12:0.063 13:-0.758 14:-1.493 15:-0.623 
1 1:0.622 2:0.777 3:-0.526 4:0.322 5:0.886 6:0.03 7:-1.727 8:-0.426 9:0.746 10:-1.513 11:-0.424 12:0.864 13:0.476 14:0.299 15:0.594 
1 1:2.039 2:0.245 3:-0.635 4:0.085 5:-1.913 6:-1.494 7:0.567 8:0.951 9:0.319 10:1.168 11:2.059 12:-0.022 13:0.968 14:-0.022 15:0.252 
-1 1:-1.295 2:0.386 3:-1.757 4:0.661 5:0.369 6:0.659 7:-1.054 8:-1.519 9:-0.006 10:0.87 11:-0.001 12:0.326 13:-0.794 14:1.442 15:-0.033 
-0.1419943415677266 1:0.084 2:-0.02 3:-0.526 4:-0.704 5:-1.059 6:-0.365 7:-2.697 8:-0.907 9:-2.058 10:-1.381 11:-1.421 12:-1.19 13:1.328 14:0.407 15:1.293 
-1 1:-2.15 2:0.863 3:-0.278 4:1.286 5:1.121 6:-0.104 7:-1.189 8:0.153 9:-0.175 10:1.351 11:1.458 12:0.125 13:1.308 14:0.89 15:-0.584 
-0.7017070612686122 1:-0.997 2:-0.939 3:-0.094 4:-0.309 5:0.131 6:-0.506 7:-0.665 8:-4.278 9:-1.843 10:-2.382 11:-2.644 12:-0.813 13:-0.239 14:0.871 15:-0.263 
-0.5893840135065948 1:-0.307 2:-3.002 3:-0.867 4:-0.634 5:-0.542 6:-0.333 7:-1.242 8:0.244 9:-1.493 10:-0.978 11:-0.557 12:0.593 13:0.268 14:1.368 15:0.022 
-0.1010455206177643 1:-0.155 2:-1.349 3:-0.587 4:0.313 5:-1.702 6:-0.475 7:0.171 8:0.796 9:0.819 10:1.182 11:1.602 12:0.504 13:-0.961 14:0.211 15:-1.322 
-1 1:1.208 2:0.219 3:-0.742 4:-0.986 5:0.686 6:0.273 7:0.263 8:-0.03 9:-0.365 10:-0.51 11:-0.64 12:0.715 13:-0.984 14:-1.34 15:0.836 
-0.04694986341031158 1:-0.645 2:-0.44 3:1.105 4:0.34 5:-1.071 6:-0.623 7:-0.754 8:-0.856 9:-1.508 10:0.273 11:-0.464 12:0.668 13:-1.311 14:-1.959 15:-1.982 
-1 1:-0.559 2:-1.241 3:-0.046 4:-0.091 5:-0.005 6:0.587 7:-0.746 8:-0.809 9:-1.198 10:-1.537 11:2.16 12:0.55 13:-0.905 14:0.363 15:1.248 
-1 1:-1.227 2:0.922 3:-0.38 4:1.204 5:-0.256 6:0.387 7:-0.605 8:-0.01 9:0.348 10:1.238 11:1.087 12:0.966 13:-1.055 14:-0.766 15:1.09 
-0.1558757270399785 1:-0.044 2:-0.474 3:1.383 4:-0.352 5:-0.437 6:-0.787 7:-1.023 8:1.638 9:-0.434 10:-0.817 11:1.057 12:0.632 13:-1.803 14:-0.934 15:-1.153 
-0.2293522492946058 1:1.762 2:-0.034 3:0.89 4:0.425 5:-0.31 6:-0.185 7:0.631 8:0.2 9:-0.446 10:-0.004 11:-0.64 12:0.558 13:0.096 14:0.399 15:1.583 
-0.5690102122956129 1:1.23 2:-0.075 3:-1.066 4:1.365 5:1.106 6:-0.102 7:0.188 8:-2.464 9:-1.97 10:-1.271 11:-0.655 12:0.417 13:0.436 14:1.562 15:0.527 
-0.2974194356360046 1:1.72 2:-0.258 3:-1.353 4:-1.741 5:-2.773 6:-2.852 7:1.417 8:-0.903 9:-0.241 10:0.345 11:0.8 12:0.844 13:-0.406 14:0.922 15:-1.032 
-0.4328929790513935 1:0.516 2:-1.427 3:-0.462 4:-0.931 5:-1.78 6:-0.589 7:-1.54 8:1.699 9:-0.517 10:-0.857 11:-0.157 12:-1.033 13:0.438 14:-2.009 15:-0.072 
-1 1:0.636 2:0.934 3:-0.333 4:0.367 5:1.305 6:0.58 7:1.098 8:-0.788 9:0.179 10:1.017 11:0.975 12:0.947 13:0.839 14:1.145 15:-0.109 
-0.9668289942656797 1:0.376 2:-0.094 3:0.144 4:-1.899 5:1.172 6:-0.675 7:-2.573 8:-0.433 9:0.079 10:-1.836 11:-0.64 12:-0.921 13:-1.199 14:-0.778 15:-1.577 
-1 1:-0.205 2:-0.909 3:0.035 4:-0.746 5:-0.672 6:0.578 7:-1.253 8:-1.089 9:-1.364 10:-1.65 11:0.141 12:-0.834 13:-0.991 14:-0.693 15:-1.171 
-1 1:0.37 2:-2.477 3:-0.805 4:-1.086 5:-1.457 6:-0.309 7:0.358 8:0.819 9:0.822 10:-1.161 11:-0.054 12:0.1 13:-1.093 14:0.761 15:-0.902 
-1 1:0.484 2:-0.861 3:-1.818 4:0.704 5:0.698 6:-0.531 7:1.141 8:0.687 9:1.315 10:0.082 11:-1.076 12:0.444 13:0.512 14:1.157 15:0.249 
-1 1:0.452 2:-0.515 3:-0.608 4:-0.264 5:-0.455 6:-0.042 7:0.064 8:0.491 9:-1.166 10:-0.983 11:-0.769 12:-0.813 13:-1.326 14:-1.712 15:-0.802 
-1 1:0.528 2:0.148 3:-0.621 4:0.088 5:-1.412 6:0.071 7:1.282 8:0.227 9:-0.16 10:1.329 11:0.385 12:0.465 13:0.864 14:-0.354 15:1.087 
-0.7525404707658008 1:1.36 2:-0.288 3:-0.142 4:-0.968 5:-1.687 6:-0.055 7:1.325 8:-0.027 9:-0.133 10:0.98 11:1.385 12:0.365 13:0.332 14:-0.533 15:-0.541 
-0.6000608001686383 1:-1.207 2:0.152 3:-0.196 4:1.593 5:1.426 6:-1.537 7:1.105 8:-0.48 9:1.076 10:0.068 11:-0.177 12:0.839 13:1.744 14:0.407 15:0.424 
-1 1:-0.687 2:-1.624 3:-0.882 4:0.786 5:0.031 6:-0.497 7:-0.045 8:-0.017 9:1.911 10:0.165 11:0.306 12:-0.836 13:-0.213 14:-0.444 15:0.146 
-1 1:1.13 2:-2.916 3:-1.253 4:-2.727 5:1.574 6:-0.863 7:1.668 8:-0.474 9:-0.558 10:0.506 11:1.508 12:0.601 13:0.248 14:0.809 15:-0.886 
-0.4696124066234092 1:1.446 2:-1.959 3:-1.4 4:-2.43 5:0.158 6:-0.52 7:-0.53 8:-2.761 9:-2.014 10:-2.266 11:-1.477 12:0.417 13:-0.487 14:-0.816 15:-0.093 
-1 1:0.38 2:0.39 3:-0.526 4:-1.505 5:0.542 6:-0.421 7:-0.998 8:1.252 9:-1.425 10:0.004 11:0.593 12:1.649 13:0.816 14:1.313 15:0.209 
-1 1:0.614 2:1.678 3:-0.333 4:-0.737 5:0.282 6:-1.009 7:0.128 8:-0.683 9:1.21 10:1.265 11:0.441 12:0.007 13:1.731 14:0.174 15:2.165 
-1 1:-1.087 2:0.241 3:1.614 4:1.201 5:-0.476 6:-0.1 7:-0.198 8:0.213 9:-2.045 10:-0.65 11:0.141 12:-0.823 13:-0.411 14:0.18 15:0.627 
-1 1:-0.495 2:0.919 3:1.342 4:-0.209 5:-1.726 6:1.207 7:-0.081 8:1.533 9:-1.55 10:-0.72 11:2.059 12:-0.796 13:-1.455 14:-0.746 15:-1.174 
-1 1:-0.629 2:-1.71 3:-1.955 4:-1.038 5:0.013 6:0.082 7:0.128 8:0.329 9:1.056 10:0.049 11:-0.501 12:0.284 13:-0.733 14:1.442 15:0.73 
-1 1:1.14 2:0.215 3:-0.682 4:-0.085 5:-0.219 6:0.14 7:1.137 8:0.406 9:0.477 10:-0.903 11:-0.353 12:-0.842 13:-1.554 14:-2.142 15:-0.59 
-1 1:-0.235 2:0.833 3:0.401 4:-0.558 5:-1.611 6:0.733 7:0.259 8:-0.612 9:1.017 10:-1.199 11:0.441 12:-0.842 13:0.053 14:0.128 15:0.518 
-1 1:1.508 2:-2.041 3:-0.444 4:-1.714 5:-0.117 6:-0.257 7:-0.729 8:0.931 9:-0.187 10:0.063 11:0.141 12:-0.776 13:0.76 14:0.572 15:1.665 
-1 1:-0.113 2:-0.306 3:1.342 4:0.088 5:-0.234 6:0.605 7:-0.081 8:1.073 9:0.565 10:1.284 11:-0.239 12:-1.084 13:1.632 14:1.335 15:0.006 
-0.9224259735279423 1:0.2 2:0.755 3:0.756 4:-0.282 5:1.604 6:-0.729 7:-1.532 8:0.186 9:-0.888 10:-1.147 11:0.126 12:0.547 13:-0.746 14:-1.927 15:-0.659 
-1 1:1.498 2:-0.746 3:-2.309 4:-0.161 5:0.617 6:-0.544 7:-0.562 8:-0.128 9:1.256 10:-0.169 11:-1.121 12:0.725 13:-0.132 14:-0.742 15:0.945 
-1 1:0.658 2:-1.14 3:-0.278 4:0.206 5:1.269 6:0.372 7:-0.746 8:-0.267 9:0.35 10:-0.631 11:0.141 12:-0.124 13:0.654 14:1.834 15:0.327 
-1 1:-0.405 2:-0.947 3:-0.587 4:-0.573 5:1.474 6:-0.354 7:1.18 8:0.477 9:0.739 10:0.939 11:0.182 12:-1.084 13:-1.258 14:-0.981 15:-1.292 
-1 1:-1.939 2:-0.898 3:0.494 4:1.623 5:0.043 6:-0.037 7:-1.394 8:0.373 9:-0.561 10:-0.873 11:0.048 12:0.005 13:-0.294 14:0.853 15:0.427 
-1 1:-0.649 2:0.52 3:1.342 4:-0.649 5:-0.216 6:0.091 7:-1.55 8:0.437 9:-0.175 10:0.851 11:0.141 12:-0.681 13:0.218 14:-0.296 15:-0.393 
-1 1:0.636 2:1.656 3:-0.326 4:-0.2 5:0.025 6:-0.062 7:-0.619 8:-0.812 9:1.537 10:-1.026 11:0.441 12:0.564 13:1.146 14:0.602 15:0.491 
-1 1:-1.205 2:0.297 3:1.205 4:-0.197 5:-1.424 6:0.019 7:0.56 8:0.081 9:1.796 10:0.55 11:1.523 12:-1.095 13:0.19 14:-0.553 15:-1.834 
-0.8442907317155274 1:-1.717 2:1.015 3:-0.648 4:-0.822 5:0.955 6:-0.787 7:-1.66 8:0.494 9:-1.833 10:-0.897 11:1.523 12:-1.105 13:0.23 14:0.875 15:-0.124 
-1 1:1.638 2:0.427 3:1.212 4:0.573 5:1.139 6:0.58 7:0.348 8:-0.223 9:0.612 10:0.883 11:-0.115 12:0.701 13:0.644 14:-0.043 15:1.341 
-0.4270179231017317 1:0.614 2:0.68 3:-0.333 4:-0.021 5:-0.962 6:-0.419 7:-0.591 8:0.115 9:-2.004 10:-1.199 11:0.141 12:-0.946 13:-0.887 14:-1.991 15:-1.534 
-0.2762179150912462 1:-2.506 2:1.06 3:-0.464 4:1.341 5:0.641 6:-1.635 7:-0.361 8:-1.719 9:-0.38 10:-0.483 11:2.018 12:2.171 13:0.405 14:-0.48 15:0.179 
-1 1:1.33 2:-0.585 3:0.849 4:-1.244 5:-1.204 6:0.174 7:0.659 8:-4.481 9:-2.883 10:-1.416 11:0.849 12:-0.766 13:-0.796 14:-0.778 15:-0.944 
-1 1:0.148 2:-0.369 3:-0.658 4:0.158 5:1.266 6:-0.273 7:0.064 8:1.303 9:0.553 10:-0.827 11:0.141 12:-0.585 13:-0.152 14:-0.505 15:-0.072 
-0.6733277843629992 1:-1.619 2:0.178 3:1.43 4:-0.388 5:0.946 6:-0.672 7:0.472 8:-1.35 9:-0.084 10:0.641 11:2.419 12:0.61 13:-0.429 14:1.119 15:0.243 
-1 1:0.532 2:0.781 3:-0.267 4:1.851 5:-0.259 6:-0.72 7:0.783 8:0.386 9:0.504 10:0.579 11:-0.625 12:-0.925 13:0.294 14:0.871 15:0.812 
-0.2637404570530802 1:2.101 2:-1.713 3:-0.812 4:-1.359 5:1.323 6:-0.154 7:-0.941 8:-2.609 9:-1.791 10:0.173 11:0.306 12:-1.07 13:-1.323 14:-0.31 15:-0.947 
-0.9700126885441944 1:-0.123 2:-1.058 3:-1.121 4:1.238 5:-0.832 6:0.064 7:0.422 8:-0.298 9:0.057 10:0.195 11:-0.353 12:-0.929 13:0.986 14:0.144 15:0.24 
-0.9127035293506386 1:-0.175 2:-0.228 3:1.205 4:-0.558 5:1.124 6:0.046 7:1.555 8:-1.201 9:-1.178 10:0.706 11:-0.157 12:0.703 13:-0.251 14:0.542 15:-0.345 
-0.6498211066118574 1:-0.559 2:-1.468 3:-0.355 4:-0.953 5:-1.859 6:-0.008 7:0.521 8:0.762 9:-1.523 10:-0.128 11:-0.651 12:-0.747 13:0.306 14:0.369 15:1.29 
-1 1:0.174 2:0.509 3:0.98 4:1.186 5:1.474 6:-0.394 7:-1.851 8:0.271 9:-1.025 10:-0.959 11:1.538 12:2.136 13:-0.348 14:-0.382 15:0.706 
-0.02415496120401875 1:-1.119 2:1.723 3:0.106 4:-0.379 5:0.11 6:-0.668 7:1.544 8:0.065 9:0.834 10:1.009 11:0.182 12:-0.699 13:-0.244 14:-0.105 15:-0.408 
-0.001386578515555114 1:0.892 2:1.466 3:1.074 4:1.335 5:0.702 6:-1.294 7:-0.994 8:0.515 9:-0.319 10:-0.486 11:-1.014 12:-0.747 13:0.517 14:1.568 15:-0.227 
-0.07086111742352562 1:-0.601 2:1.656 3:-0.58 4:0.082 5:1.172 6:0.073 7:-0.527 8:-1.976 9:-2.114 10:-1.892 11:-0.104 12:0.436 13:0.451 14:0.45 15:1.311 
-0.919493932219142 1:-0.773 2:0.814 3:-0.717 4:1.62 5:0.955 6:-0.937 7:1.318 8:0.163 9:-0.219 10:0.402 11:0.126 12:0.494 13:-0.834 14:-0.328 15:0.657 
-1 1:-1.097 2:0.572 3:-0.233 4:-0.422 5:-0.491 6:0.508 7:-0.615 8:-2.887 9:-1.188 10:-0.682 11:1.008 12:1.046 13:1.708 14:-0.027 15:0.128 
-0.0584009561724938 1:0.154 2:0.517 3:-0.196 4:1.265 5:-0.485 6:-1.115 7:0.748 8:-0.819 9:1.347 10:1.017 11:-0.666 12:2.235 13:1.381 14:1.133 15:-0.708 
-0.1361805458575535 1:-0.08 2:0.673 3:-0.867 4:-1.52 5:0.593 6:0.035 7:0.556 8:-2.24 9:0.135 10:0.697 11:-0.561 12:0.396 13:1.797 14:0.198 15:-0.142 
-1 1:0.382 2:0.077 3:0.842 4:1.344 5:0.88 6:-0.136 7:-0.637 8:1.164 9:-0.6 10:-1.484 11:-0.13 12:0.833 13:-1.014 14:0.542 15:-0.081 
-1 1:1.274 2:-0.18 3:-0.751 4:-1.183 5:-0.47 6:-0.089 7:0.245 8:1.11 9:0.289 10:-0.064 11:-0.275 12:0.284 13:-0.464 14:-0.069 15:0.103 
-1 1:-0.993 2:1.123 3:1.383 4:1.332 5:-0.274 6:0.033 7:-1.292 8:-0.328 9:0.743 10:-0.693 11:-0.177 12:-1.055 13:1.082 14:-0.792 15:0.697 
-0.3103258489788406 1:0.834 2:0.431 3:-0.982 4:0.953 5:0.895 6:-0.796 7:1.229 8:0.227 9:0.909 10:-1.234 11:-1.713 12:-1.19 13:-1.453 14:-0.701 15:-0.181 
-1 1:0.596 2:-0.027 3:-0.278 4:0.052 5:-0.343 6:0.003 7:-0.304 8:1.412 9:-0.575 10:-0.413 11:1.862 12:0.763 13:-1.369 14:-1.34 15:-0.015 
-1 1:-1.207 2:-0.656 3:-0.135 4:-1.308 5:-0.274 6:0.192 7:-0.272 8:0.586 9:0.922 10:0.402 11:-0.353 12:-1.602 13:-0.332 14:-0.143 15:-0.55 
-1 1:-0.509 2:-0.101 3:1.33 4:0.783 5:0.436 6:0.96 7:0.585 8:-1.337 9:-0.321 10:-0.354 11:0.542 12:0.303 13:-0.036 14:-0.346 15:-0.417 
-1 1:-0.773 2:0.442 3:1.33 4:0.052 5:0.197 6:0.297 7:-0.722 8:0.44 9:-0.675 10:-1.067 11:-0.104 12:-0.958 13:-0.748 14:-0.083 15:1.123 
-1 1:0.308 2:0.632 3:1.651 4:-0.209 5:-1.092 6:0.63 7:0.11 8:0.508 9:0.519 10:-1.072 11:-0.085 12:-0.48 13:-0.14 14:-0.533 15:0.243 
-0.5845512589831577 1:-0.455 2:-1.579 3:0.144 4:-1.52 5:-1.261 6:0.356 7:-0.839 8:-2.027 9:0.033 10:-0.879 11:0.182 12:2.074 13:-1.298 14:0.502 15:-1.462 
-0.4864975065807393 1:-1.769 2:0.684 3:-0.046 4:-0.922 5:-0.938 6:0.695 7:-1.069 8:-2.145 9:-0.741 10:-0.725 11:-0.104 12:-0.832 13:-1.012 14:-0.955 15:-0.644 
-0.1551466268861549 1:0.504 2:-0.548 3:-1.162 4:1.623 5:1.459 6:-1.647 7:-0.69 8:-0.047 9:-1.242 10:-0.986 11:0.182 12:2.096 13:-1.346 14:-1.712 15:-1.465 
-1 1:1.19 2:-1.166 3:-2.284 4:-1.936 5:-1.17 6:-0.107 7:-0.141 8:0.4 9:0.27 10:1.563 11:-1.972 12:-1.093 13:0.73 14:1.398 15:-0.115 
-1 1:2.035 2:-1.378 3:0.631 4:-0.831 5:-1.288 6:0.266 7:2.277 8:-0.389 9:0.043 10:0.66 11:0.864 12:0.467 13:0.877 14:0.683 15:0.067 
-1 1:1.37 2:0.598 3:-0.142 4:-1.147 5:1.426 6:-0.868 7:-0.527 8:-0.247 9:1.283 10:0.063 11:0.8 12:-1.02 13:-1.972 14:-2.166 15:-1.873 
-1 1:1.797 2:-0.917 3:0.626 4:-0.865 5:-3.018 6:-1.375 7:-1.943 8:0.86 9:-2.448 10:-2.46 11:-1.052 12:-0.796 13:-0.713 14:-0.278 15:-0.463 
-1 1:-0.217 2:1.019 3:0.678 4:1.402 5:1.532 6:-0.666 7:0.56 8:-0.118 9:-0.448 10:-1.22 11:1.098 12:0.593 13:0.271 14:0.227 15:2.231 
-1 1:-1.157 2:0.52 3:1.105 4:0.306 5:0.104 6:-0.068 7:0.454 8:-0.04 9:0.621 10:1.219 11:-0.145 12:-0.136 13:-0.292 14:-0.382 15:0.128 
-0.5787424379839694 1:0.078 2:-0.027 3:0.987 4:-0.243 5:-1.095 6:-0.178 7:1.254 8:1.053 9:1.041 10:0.307 11:0.441 12:0.568 13:-0.657 14:-0.035 15:-0.762 
-1 1:-0.028 2:0.435 3:-0.998 4:0.03 5:-1.412 6:0.962 7:-0.01 8:-0.599 9:-0.522 10:0.603 11:-1.067 12:-0.678 13:-1.204 14:-0.01 15:-0.057 
-1 1:0.298 2:0.025 3:1.514 4:0.807 5:0.306 6:1.036 7:-0.155 8:-0.067 9:0.897 10:0.625 11:0.025 12:0.57 13:-0.388 14:1.368 15:0.512 
-1 1:0.408 2:0.919 3:1.342 4:0.003 5:-0.068 6:-0.679 7:-1.278 8:1.584 9:1.173 10:-0.951 11:0.141 12:1.968 13:1.102 14:-0.374 15:0.288 
-1 1:-2.016 2:-0.749 3:-0.771 4:-0.279 5:0.916 6:-0.311 7:1.049 8:0.9 9:0.653 10:1.391 11:0.441 12:0.003 13:0.423 14:-0.663 15:-1.032 
-1 1:-0.567 2:0.848 3:1.698 4:1.708 5:0.454 6:-0.327 7:1.633 8:0.048 9:-0.143 10:1.012 11:-0.531 12:0.297 13:-0.872 14:-0.77 15:-0.109 
-1 1:-1.205 2:0.111 3:-0.362 4:0.674 5:-0.171 6:0.567 7:-1.391 8:-1.221 9:-0.114 10:0.851 11:0.385 12:0.574 13:-0.287 14:-0.338 15:-0.414 
-1 1:-0.643 2:1.109 3:0.946 4:-0.061 5:0.819 6:-0.354 7:-0.166 8:0.417 9:-0.026 10:0.821 11:0.849 12:0.168 13:-0.986 14:-0.589 15:0.267 
-1 1:-1.053 2:-0.168 3:-0.773 4:0.431 5:-0.05 6:-0.084 7:-1.685 8:0.369 9:-1.408 10:-1.325 11:1.503 12:0.651 13:-0.964 14:-0.282 15:0.479 
-1 1:-0.405 2:0.651 3:-1.037 4:-0.798 5:-0.102 6:1.139 7:-0.863 8:0.498 9:-0.439 10:1.104 11:-0.001 12:2.188 13:0.056 14:1.669 15:0.833 
-1 1:0.54 2:-0.377 3:0.726 4:1.76 5:0.188 6:0.71 7:-0.708 8:-0.088 9:0.424 10:1.44 11:-0.496 12:0.034 13:-0.652 14:-0.075 15:1.465 
-1 1:0.7 2:0.1 3:-0.36 4:-1.347 5:0.508 6:-0.093 7:-1.363 8:0.217 9:0.189 10:0.835 11:-1.121 12:-0.807 13:1.888 14:1.558 15:1.502 
-1 1:-0.01 2:-0.176 3:-1.162 4:-0.088 5:-0.829 6:-0.452 7:0.015 8:1.259 9:1.149 10:-0.424 11:-0.08 12:0.16 13:1.574 14:1.631 15:0.836 
-1 1:0.326 2:-0.947 3:-0.026 4:-2.373 5:-0.316 6:-0.479 7:1.031 8:0.738 9:1.637 10:1.378 11:0.141 12:0.657 13:0.948 14:-0.035 15:-0.517 
-0.1282906479549796 1:0.606 2:-1.166 3:1.403 4:-0.331 5:-0.947 6:0.134 7:-1.235 8:-0.206 9:0.485 10:-1.191 11:-1.2 12:0.429 13:-0.915 14:0.745 15:0.479 
-1 1:1.402 2:1.127 3:-1.091 4:-0.173 5:-1.034 6:0.037 7:-0.286 8:-0.064 9:0.133 10:1.249 11:0.4 12:0.593 13:1.903 14:-0.153 15:-0.196 
-1 1:-0.415 2:1.485 3:-0.333 4:-0.595 5:-0.44 6:0.428 7:-1.908 8:-0.741 9:-0.839 10:-0.416 11:0.441 12:-1.223 13:-0.274 14:-0.551 15:-0.181 
-0.6990265910602415 1:-0.897 2:0.349 3:0.626 4:-0.84 5:-1.49 6:-0.134 7:-1.175 8:-0.189 9:1.271 10:-1.185 11:0.542 12:0.622 13:-1.116 14:-0.487 15:-0.441 
-1 1:0.552 2:-0.652 3:-0.178 4:-0.795 5:0.551 6:0.008 7:0.716 8:0.694 9:0.724 10:1.857 11:-1.204 12:-1.01 13:0.365 14:0.16 15:0.003 
-1 1:0.284 2:0.535 3:-0.142 4:-0.461 5:-0.002 6:-0.365 7:-0.084 8:0.951 9:1.632 10:1.652 11:-0.501 12:0.405 13:-0.183 14:-0.105 15:1.139 
-1 1:0.406 2:-0.995 3:0.54 4:1.602 5:-0.458 6:-0.654 7:-0.272 8:1.293 9:1.435 10:1.254 11:1.28 12:0.725 13:-0.677 14:-0.292 15:1.078 
-1 1:0.296 2:-0.392 3:-0.11 4:1.226 5:1.172 6:-0.922 7:-0.984 8:1.611 9:-1.498 10:-0.674 11:-0.065 12:-0.904 13:-0.484 14:-0.071 15:-0.78 
-1 1:0.686 2:1.172 3:0.185 4:-0.4 5:0.949 6:-0.221 7:0.263 8:0.488 9:-0.37 10:0.945 11:-0.64 12:0.628 13:-0.979 14:-0.792 15:1.199 
-1 1:-1.239 2:-0.217 3:0.98 4:1.553 5:-1.161 6:0.594 7:0.068 8:-2.074 9:-2.578 10:-1.47 11:0.441 12:0.597 13:0.35 14:-0.354 15:0.349 
-1 1:1.907 2:0.193 3:-0.101 4:-1.044 5:1.163 6:-0.41 7:-0.283 8:0.768 9:0.743 10:1.512 11:-1.436 12:-1.805 13:0.375 14:-0.589 15:-1.658 
-1 1:-0.607 2:0.39 3:0.89 4:-0.112 5:0.961 6:0.033 7:0.525 8:0.332 9:0.333 10:1.192 11:-0.233 12:-1.217 13:0.621 14:-0.428 15:-1.135 
-1 1:-0.829 2:-1.654 3:0.363 4:1.186 5:0.484 6:-0.068 7:1.693 8:0.153 9:-1.012 10:-0.064 11:1.503 12:-1.06 13:0.048 14:-1.587 15:-0.293 
-1 1:0.228 2:1.071 3:0.726 4:0.883 5:-2.152 6:-0.897 7:0.921 8:0.934 9:0.519 10:0.794 11:-0.016 12:2.111 13:0.423 14:1.346 15:-0.708 
-1 1:0.484 2:-1.862 3:-0.669 4:1.068 5:0.907 6:-0.208 7:0.571 8:0.329 9:-0.06 10:0.945 11:-0.054 12:0.568 13:-0.401 14:-0.029 15:0.243 
-0.609637572752433 1:1.626 2:0.103 3:0.576 4:-0.188 5:1.118 6:-0.69 7:1.622 8:1.12 9:0.028 10:-0.013 11:-0.651 12:-0.637 13:0.636 14:-0.175 15:-0.269 
-1 1:-0.357 2:-0.187 3:1.342 4:0.094 5:-1.128 6:-0.21 7:1.314 8:1.533 9:1.82 10:0.55 11:0.055 12:0.754 13:0.986 14:-0.111 15:-0.172 
-0.09539000146769139 1:0.534 2:0.922 3:1.882 4:-0.012 5:0.309 6:-1.074 7:0.765 8:0.159 9:1.737 10:0.802 11:0.255 12:0.57 13:-0.124 14:-0.133 15:0.006 
-0.09504257099759465 1:0.4 2:-0.321 3:-0.737 4:1.39 5:-2.813 6:-1.016 7:-1.178 8:-0.636 9:0.013 10:1.391 11:-2.217 12:-1.037 13:0.499 14:0.054 15:0.545 
-0.7299398296825239 1:-0.513 2:0.878 3:-0.333 4:0.182 5:0.961 6:-0.378 7:-1.341 8:0.965 9:-0.822 10:-2.065 11:1.602 12:0.86 13:-1.278 14:0.988 15:-0.296 
-1 1:-1.111 2:0.014 3:1.746 4:1.76 5:0.146 6:-0.41 7:-0.47 8:0.684 9:-0.434 10:0.821 11:-0.312 12:-1.463 13:0.917 14:-0.581 15:-0.768 
-1 1:-1.215 2:0.349 3:-0.703 4:-0.628 5:0.155 6:0.585 7:1.47 8:-0.166 9:-0.028 10:-0.343 11:0.593 12:0.359 13:-0.221 14:-0.029 15:-0.027 
-0.2182497884835845 1:0.318 2:0.342 3:-0.142 4:-0.052 5:-1.768 6:0.699 7:-0.364 8:-1.276 9:-1.257 10:-0.483 11:-0.11 12:-0.977 13:1.173 14:0.174 15:0.491 
-0.1235820925964809 1:1.39 2:-2.037 3:0.89 4:-1.423 5:-0.259 6:-1.757 7:-0.569 8:1.005 9:1.427 10:0.913 11:0.857 12:0.763 13:0.76 14:-0.135 15:1.762 
-1 1:0.028 2:-0.258 3:-0.046 4:1.808 5:-0.352 6:-0.877 7:1.601 8:1.263 9:1.491 10:-0.002 11:0.542 12:1.098 13:2.119 14:1.48 15:0.209 
-1 1:0.318 2:0.971 3:-0.517 4:-0.434 5:-0.08 6:0.071 7:-0.205 8:0.812 9:-0.077 10:0.98 11:1.087 12:-0.585 13:1.868 14:-0.245 15:0.606 
-1 1:0.71 2:-0.023 3:0.54 4:1.672 5:1.094 6:0.666 7:-1.401 8:-0.92 9:-1.181 10:-1.379 11:0.306 12:-0.923 13:-1.41 14:-0.468 15:-1.283 
-1 1:0.576 2:0.844 3:-0.23 4:0.552 5:1.535 6:-0.165 7:-0.162 8:-0.291 9:1.051 10:1.047 11:0.33 12:1.204 13:0.124 14:1.247 15:0.815 
-1 1:-0.957 2:-0.593 3:-0.614 4:1.681 5:-1.034 6:0.149 7:-0.746 8:-0.409 9:0.558 10:0.337 11:0.8 12:0.529 13:-1.052 14:-1.658 15:-2.028 
-1 1:-0.257 2:-0.202 3:1.289 4:-0.54 5:-1.747 6:0.65 7:-0.396 8:-0.497 9:-2.194 10:-0.241 11:-0.61 12:-0.871 13:-0.249 14:0.916 15:0.442 
-1 1:-0.517 2:-0.142 3:0.842 4:1.851 5:-0.518 6:-0.253 7:0.482 8:-0.409 9:1.078 10:-0.674 11:-1.38 12:-0.817 13:-0.165 14:-0.366 15:-0.166 
-1 1:1.356 2:0.304 3:-0.394 4:0.455 5:0.206 6:0.486 7:1.704 8:-0.074 9:0.072 10:0.878 11:1.265 12:-0.825 13:0.623 14:-0.229 15:-0.844 
-1 1:-0.617 2:0.58 3:0.363 4:0.443 5:1.254 6:-1.191 7:1.162 8:0.999 9:0.116 10:1.198 11:0.963 12:-0.654 13:0.753 14:0.293 15:0.454 
-1 1:-0.219 2:-1.028 3:-0.835 4:-0.316 5:-0.262 6:0.67 7:-0.856 8:-0.944 9:-1.02 10:0.275 11:0.182 12:-0.929 13:-0.784 14:-0.326 15:0.255 
-0.8233491331940082 1:-0.787 2:-0.556 3:0.974 4:0.24 5:0.321 6:0.16 7:1.594 8:-0.846 9:0.248 10:0.775 11:1.643 12:0.465 13:-0.021 14:-0.537 15:-1.416 
-1 1:0.288 2:0.9 3:-0.558 4:0.152 5:-1.575 6:-0.636 7:-0.258 8:0.129 9:0.558 10:0.474 11:0.975 12:2.239 13:0.238 14:1.203 15:1.729 
-0.9269185247698476 1:0.056 2:0.2 3:-1.121 4:0.382 5:-0.093 6:-0.147 7:1.017 8:0.176 9:-0.373 10:0.219 11:0.079 12:0.634 13:-1.486 14:-0.716 15:-1.549 
-0.06254859978042666 1:-1.025 2:-1.691 3:-1.298 4:-1.207 5:1.637 6:-1.09 7:0.27 8:-0.453 9:1.051 10:-1.032 11:0.141 12:0.668 13:-1.118 14:-0.937 15:-0.711 
-0.5649839326056708 1:0.38 2:0.543 3:-0.517 4:0.686 5:-0.458 6:0.037 7:0.376 8:-0.474 9:-0.778 10:-0.343 11:-0.466 12:-0.823 13:1.835 14:1.669 15:-0.502 
-0.9762315188217637 1:1.72 2:0.863 3:-0.462 4:0.049 5:0.221 6:-0.421 7:-0.014 8:0.562 9:0.846 10:0.251 11:-0.353 12:0.628 13:0.902 14:0.329 15:0.642 
-1 1:1.676 2:0.811 3:-0.333 4:-0.382 5:0.985 6:1.094 7:-0.113 8:0.237 9:0.194 10:0.547 11:-0.145 12:0.993 13:-0.573 14:-0.035 15:0.203 
-0.007255686106071366 1:-0.437 2:0.379 3:-1.03 4:-1.854 5:-1.723 6:-0.446 7:1.204 8:-1.408 9:-0.903 10:-0.33 11:0.441 12:1.792 13:-1.676 14:0.97 15:-0.236 
-0.09169989558361719 1:0.026 2:-1.107 3:1.342 4:-0.992 5:-1.291 6:-0.055 7:0.018 8:0.075 9:-2.458 10:-0.475 11:0.306 12:-0.635 13:1.485 14:-0.941 15:0.912 
-1 1:-1.371 2:-0.928 3:-0.23 4:-1.211 5:0.768 6:0.354 7:0.171 8:-0.978 9:-1.213 10:-1.252 11:-1.93 12:-2.221 13:1.006 14:1.376 15:-0.305 
-1 1:-0.014 2:-0.381 3:-0.444 4:-0.41 5:0.674 6:0.495 7:-0.566 8:-1.787 9:-0.426 10:-1.683 11:-1.406 12:-0.956 13:1.054 14:-1.517 15:0.176 
-0.7869634431642129 1:1.338 2:0.107 3:1.117 4:0.856 5:-1.798 6:-0.549 7:1.279 8:0.643 9:0.739 10:-0.314 11:-1.052 12:0.707 13:-1.022 14:0.556 15:0.33 
-0.8575701187334254 1:-0.557 2:-2.7 3:-0.703 4:-1.854 5:-1.853 6:-0.423 7:1.463 8:-1.895 9:0.46 10:0.178 11:-0.464 12:-1.078 13:-0.122 14:-0.067 15:0.467 
-1 1:-0.319 2:0.103 3:0.565 4:0.109 5:-1.551 6:0.515 7:0.985 8:-0.389 9:-0.421 10:0.138 11:-0.353 12:-0.546 13:1.133 14:-0.189 15:1.296 
-1 1:0.964 2:-0.139 3:-0.267 4:1.581 5:0.599 6:-1.229 7:-1.872 8:1.198 9:-1.261 10:-0.682 11:-1.436 12:-2.205 13:-0.005 14:1.699 15:-0.214 
-1 1:-1.409 2:-0.768 3:-0.278 4:-0.74 5:0.107 6:0.562 7:0.581 8:0.322 9:-0.28 10:0.388 11:0.385 12:1.964 13:0.436 14:-0.3 15:-1.113 
-1 1:-0.921 2:-0.288 3:-0.757 4:-0.006 5:-0.105 6:-0.969 7:2.32 8:0.092 9:0.187 10:1.421 11:0.182 12:-0.132 13:0.793 14:0.602 15:1.087 
-0.1977016068207135 1:0.1 2:1.362 3:1.105 4:0.07 5:-0.461 6:-1.22 7:0.496 8:0.444 9:1.09 10:1.37 11:-0.059 12:-0.782 13:1.536 14:-0.049 15:1.962 
-1 1:-0.531 2:1.38 3:-0.464 4:-0.203 5:0.031 6:-0.093 7:-0.718 8:1.039 9:-1.176 10:0.606 11:-0.115 12:-0.743 13:-1.055 14:-0.665 15:-0.572 
-0.3013619866340986 1:-0.811 2:-0.571 3:0.331 4:0.37 5:-0.597 6:-0.309 7:-0.952 8:0.332 9:-0.756 10:-0.873 11:0.615 12:2.214 13:-1.133 14:-0.683 15:-1.84 
-1 1:-0.395 2:-0.567 3:1.33 4:0.225 5:0.246 6:0.951 7:-1.561 8:-1.908 9:-1.093 10:-1.798 11:1.473 12:0.841 13:-1.516 14:-0.537 15:-1.228 
-1 1:-1.091 2:-0.924 3:-2.345 4:-0.039 5:-1.635 6:0.286 7:-1.848 8:-1.902 9:-1.635 10:-1.408 11:0.542 12:-1.101 13:0.025 14:-1.601 15:-1.879 
-1 1:-0.139 2:-1.911 3:-2.427 4:-0.862 5:-0.72 6:-0.991 7:-0.166 8:1.472 9:-0.172 10:1.319 11:-0.142 12:-0.678 13:-0.282 14:-0.254 15:0.672 
-0.5057396844691916 1:1.056 2:-0.284 3:-0.462 4:-0.491 5:-0.899 6:-0.796 7:1.36 8:-0.48 9:1.085 10:0.687 11:-1.436 12:-1.441 13:1.625 14:1.781 15:1.108 
-1 1:0.454 2:1.094 3:0.91 4:-0.449 5:1.067 6:0.169 7:-0.506 8:-1.381 9:0.275 10:-1.107 11:-0.164 12:1.786 13:-0.558 14:1.637 15:1.054 
-1 1:-1.689 2:-0.049 3:0.494 4:-0.082 5:1.674 6:-0.468 7:0.996 8:0.782 9:-0.587 10:0.06 11:0.306 12:0.154 13:-0.555 14:-1.38 15:-1.35 
-0.08724367664720502 1:-1.225 2:-0.95 3:0.671 4:1.893 5:-0.099 6:-0.47 7:0.224 8:0.281 9:-0.504 10:1.026 11:-0.16 12:-0.685 13:-0.789 14:0.227 15:-0.145 
-1 1:0.264 2:-1.46 3:-0.362 4:-2.002 5:-1.104 6:-0.221 7:-0.644 8:-1.614 9:-1.696 10:-2.183 11:1.385 12:0.668 13:1.685 14:1.335 15:0.912 
-1 1:1.684 2:0.472 3:0.81 4:-1.426 5:-0.089 6:0.365 7:-0.212 8:-0.626 9:-1.508 10:-0.61 11:0.126 12:-0.006 13:-0.548 14:-0.585 15:-1.074 
-1 1:0.722 2:0.792 3:-0.867 4:-2.118 5:-0.071 6:-0.021 7:0.153 8:1.246 9:-0.734 10:0.141 11:-0.115 12:-0.095 13:-0.999 14:-0.782 15:-0.699 
-0.5164889782524721 1:0.43 2:-1.334 3:-0.178 4:-1.053 5:-0.998 6:0.129 7:0.493 8:0.332 9:0.333 10:1.192 11:0.593 12:-1.175 13:-1.265 14:-0.326 15:-0.066 
-1 1:-1.259 2:-1.658 3:0.215 4:1.044 5:0.309 6:-0.495 7:-1.008 8:0.264 9:0.235 10:0.547 11:-1.713 12:-1.592 13:0.299 14:-0.039 15:-0.115 
-1 1:-0.225 2:-1.047 3:-0.812 4:-2.03 5:-0.074 6:0.3 7:-0.01 8:-0.301 9:0.99 10:0.636 11:-0.636 12:0.5 13:-0.008 14:-0.382 15:0.276 
-0.3632144411561353 1:-1.415 2:-1.036 3:-0.41 4:0.146 5:-1.668 6:-0.776 7:0.581 8:0.711 9:0.841 10:-0.123 11:0.126 12:0.97 13:1.049 14:1.661 15:0.47 
-1 1:1.42 2:-0.336 3:1.514 4:1.69 5:1.547 6:1.139 7:0.744 8:-0.639 9:0.511 10:-1.096 11:0.441 12:-0.627 13:0.023 14:1.149 15:-0.305 
-0.5782466923884879 1:-0.835 2:0.074 3:-0.451 4:-0.3 5:-0.73 6:0.035 7:-0.605 8:-0.193 9:0.494 10:-1.177 11:-1.93 12:-2.188 13:0.507 14:1.068 15:-0.236 
-1 1:0.414 2:1.075 3:-0.658 4:-0.039 5:-0.79 6:0.104 7:-0.283 8:0.471 9:0.668 10:1.51 11:-0.511 12:1.749 13:-0.013 14:0.496 15:-0.623 
-1 1:1.012 2:-1.52 3:-1.23 4:-0.777 5:-1.804 6:0.113 7:-0.325 8:-1.722 9:-0.754 10:0.079 11:0.141 12:0.701 13:0.39 14:1.434 15:1.02 
-0.5567866578837212 1:0.72 2:0.342 3:0.81 4:-0.959 5:-0.207 6:-0.329 7:0.939 8:0.396 9:-0.522 10:0.256 11:-2.093 12:-1.223 13:-1.432 14:-1.555 15:-0.372 
-0.4669640850082744 1:-0.377 2:0.241 3:-0.094 4:-0.84 5:1.354 6:-0.042 7:-0.492 8:-0.768 9:0.575 10:-1.607 11:-0.52 12:0.556 13:1.48 14:0.158 15:0.203 
-1 1:-0.989 2:0.293 3:1.074 4:-0.221 5:0.421 6:0.634 7:0.617 8:-0.87 9:-0.634 10:-1.08 11:-1.147 12:-0.935 13:0.451 14:0.369 15:0.845 
-1 1:-2.18 2:-0.247 3:1.383 4:0.206 5:0.487 6:0.048 7:0.008 8:-0.003 9:1.471 10:-0.983 11:-1.056 12:-0.747 13:0.689 14:1.422 15:0.276 
-1 1:1.256 2:0.282 3:-1.175 4:-0.871 5:-1.179 6:0.452 7:1.183 8:-1.749 9:-0.944 10:0.307 11:-0.52 12:0.508 13:1.625 14:1.352 15:-0.402 
-1 1:0.87 2:-1.066 3:-0.267 4:1.632 5:-0.153 6:0.363 7:0.794 8:0.501 9:-0.099 10:0.299 11:-1.852 12:-0.944 13:-0.244 14:1.424 15:1.571 
-1 1:0.636 2:1.552 3:-0.333 4:0.127 5:0.2 6:1.029 7:-0.509 8:-0.555 9:-1.176 10:-0.739 11:-0.52 12:0.436 13:-0.614 14:-0.099 15:0.551 
-1 1:0.798 2:0.543 3:-0.23 4:0.322 5:-0.763 6:-0.479 7:-0.867 8:0.819 9:1.454 10:0.488 11:1.666 12:0.661 13:1.589 14:0.06 15:2.065 
-0.264327130888251 1:1.873 2:0.498 3:1.074 4:-0.316 5:-0.437 6:-0.652 7:-1.062 8:1.442 9:-0.883 10:0.746 11:-0.52 12:-1.084 13:0.01 14:-0.607 15:-0.345 
-0.5303408641715698 1:-1.962 2:1.03 3:-0.505 4:-0.258 5:1.354 6:-1.076 7:0.585 8:-0.545 9:-1.215 10:-0.655 11:-1.38 12:-1.246 13:0.737 14:-0.123 15:1.971 
-1 1:0.58 2:-0.63 3:-2.223 4:-0.592 5:0.372 6:-0.003 7:0.404 8:-0.606 9:-1.017 10:0.243 11:0.141 12:0.104 13:-1.402 14:-0.937 15:-1.204 
-1 1:0.488 2:-1.427 3:1.158 4:-1.056 5:0.068 6:-0.001 7:1.13 8:1.141 9:-0.597 10:0.792 11:-0.054 12:0.864 13:-0.218 14:1.376 15:-0.448 
-0.03783658033059001 1:1.568 2:0.066 3:-2.023 4:-1.05 5:0.84 6:-0.886 7:0.404 8:-0.45 9:-0.38 10:-0.287 11:1.643 12:0.326 13:0.205 14:0.144 15:0.188 
-0.4400813439094066 1:1.568 2:-0.369 3:-0.464 4:-0.901 5:1.245 6:0.104 7:-1.288 8:-1.394 9:-1.672 10:-0.222 11:-0.451 12:1.786 13:-0.084 14:-0.249 15:-0.142 
-1 1:-0.211 2:1.094 3:-0.101 4:-0.258 5:-0.228 6:-0.053 7:1.608 8:0.433 9:1.435 10:1.378 11:-1.177 12:-0.941 13:-0.809 14:-0.527 15:0.088 
-0.2929417535942368 1:1.148 2:-1.3 3:-0.614 4:-0.743 5:0.433 6:-0.946 7:-0.017 8:-0.626 9:0.448 10:0.824 11:1.862 12:-0.656 13:-0.188 14:1.227 15:1.78 
-1 1:0.61 2:-0.53 3:-0.094 4:-0.698 5:0.2 6:-0.293 7:1.01 8:1.093 9:-0.382 10:0.16 11:-0.511 12:1.749 13:1.09 14:0.51 15:-0.678 
-0.06070847324434214 1:1.192 2:0.059 3:-1.026 4:-0.755 5:0.064 6:-1.11 7:1.541 8:0 9:0.58 10:-0.564 11:1.462 12:-1.004 13:1.341 14:1.187 15:0.896 
-1 1:0.722 2:-2.488 3:-0.889 4:0.121 5:-0.953 6:-0.302 7:1.371 8:0.081 9:0.555 10:0.759 11:-1.363 12:-0.929 13:1.767 14:0.293 15:0.212 
-1 1:0.778 2:-0.176 3:-0.435 4:0.394 5:-1.798 6:0.064 7:-0.056 8:0.413 9:0.726 10:0.208 11:0.497 12:0.429 13:1.001 14:1.591 15:1.084 
-1 1:-0.567 2:1.391 3:1.11 4:0.134 5:-0.482 6:-0.949 7:0.67 8:0.325 9:-0.629 10:0.092 11:-2.082 12:-1.221 13:-2.269 14:-0.541 15:-0.992 
-1 1:1.476 2:-2.171 3:0.726 4:0.561 5:1.094 6:0.08 7:-1.472 8:-0.562 9:-1.745 10:-0.666 11:-0.511 12:1.535 13:0.284 14:0.213 15:-0.29 
-1 1:-1.001 2:-0.667 3:-0.903 4:-1.028 5:-1.385 6:-0.286 7:-0.304 8:0.843 9:0.993 10:-0.9 11:-0.115 12:-0.944 13:-1.199 14:-1.774 15:0.433 
-1 1:1.594 2:0.442 3:-0.083 4:-0.425 5:-1.723 6:1.142 7:0.673 8:-0.646 9:-0.123 10:-0.33 11:1.28 12:0.883 13:0.93 14:0.735 15:-0.886 
-1 1:-0.084 2:-0.001 3:0.658 4:-0.106 5:1.32 6:0.639 7:0.794 8:-0.081 9:-0.187 10:0.049 11:-0.424 12:0.44 13:0.631 14:-0.521 15:0.073 
-1 1:0.922 2:0.528 3:-0.462 4:-0.206 5:-0.868 6:0.558 7:0.51 8:-0.199 9:0.695 10:-1.201 11:-1.852 12:-0.747 13:1.351 14:0.407 15:0.948 
-0.8519919419837033 1:-0.335 2:1.522 3:-0.812 4:0.215 5:0.557 6:-0.996 7:0.73 8:0.501 9:-1.218 10:0.461 11:-0.496 12:-0.142 13:0.651 14:2.292 15:0.884 
-1 1:0.362 2:-0.135 3:0.413 4:-0.595 5:-0.077 6:0.464 7:-1.136 8:0.034 9:-0.832 10:-1.158 11:0.497 12:-0.923 13:0.532 14:-0.288 15:-2.242 
-0.2840136561615239 1:0.138 2:1.488 3:-0.142 4:1.532 5:1.022 6:-0.915 7:-0.215 8:-0.518 9:1.139 10:-1.54 11:-0.769 12:0.578 13:0.38 14:1.392 15:2.489 
-0.1017550055947234 1:1.032 2:2.233 3:1.205 4:0.179 5:-0.295 6:-0.98 7:-0.761 8:-0.098 9:0.116 10:1.649 11:-0.496 12:-0.099 13:1.338 14:-0.153 15:0.43 
-1 1:1.692 2:-0.314 3:-1.391 4:-1.283 5:1.233 6:-0.235 7:1.374 8:-1.573 9:-0.495 10:0.173 11:0.975 12:0.844 13:0.874 14:-0.352 15:-0.166 
-1 1:-1.237 2:2.173 3:0.276 4:-0.364 5:-0.811 6:-0.037 7:1.304 8:0.609 9:0.973 10:1.504 11:-0.095 12:0.494 13:-0.974 14:-1.005 15:-0.021 
-1 1:-1.373 2:1.674 3:-0.326 4:-0.1 5:1.493 6:-0.45 7:0.822 8:-0.819 9:0.174 10:1.012 11:1.508 12:0.833 13:-0.908 14:-0.742 15:-1.428 
-1 1:-0.845 2:-0.437 3:-0.985 4:0.628 5:-0.823 6:-0.434 7:2.415 8:0.065 9:0.177 10:1.604 11:0.126 12:0.864 13:1.323 14:1.358 15:0.454 
-1 1:-1.209 2:-0.12 3:0.842 4:0.049 5:-0.376 6:1.052 7:-0.145 8:-0.947 9:-1.318 10:0.41 11:0.182 12:0.429 13:-0.408 14:-0.525 15:-1.029 
-1 1:-0.857 2:-0.012 3:-0.805 4:-1.253 5:1.719 6:0.654 7:-0.47 8:1.533 9:-0.446 10:0.458 11:2.16 12:0.837 13:-0.165 14:-0.868 15:0.224 
-1 1:0.718 2:0.256 3:-0.719 4:-0.331 5:0.499 6:-0.086 7:1.583 8:0.62 9:-0.175 10:1.305 11:1.368 12:-0.875 13:-1.116 14:-0.601 15:-1.207 
-0.867493355801609 1:0.242 2:0.003 3:0.09 4:1.49 5:-0.428 6:-0.306 7:-2.372 8:-0.995 9:-1.103 10:-2.433 11:0.542 12:0.804 13:0.697 14:0.572 15:2.083 
-0.1961025490437926 1:1.304 2:0.569 3:0.269 4:-1.481 5:-0.274 6:-0.201 7:-0.102 8:-0.599 9:1.327 10:-1.067 11:-0.016 12:1.972 13:-0.041 14:-0.288 15:0.355 
-0.08993350926154453 1:-0.365 2:-1.885 3:-1.578 4:-1.948 5:0.028 6:0.021 7:-1.426 8:-0.298 9:-0.685 10:-0.55 11:-1.972 12:-2.02 13:0.775 14:1.627 15:0.203 
-1 1:1.484 2:-2.022 3:-1.362 4:-0.343 5:0.457 6:0.012 7:-3.282 8:-1.766 9:-1.02 10:-2.576 11:0.4 12:0.185 13:-1.187 14:-0.487 15:-0.905 
-1 1:0.288 2:0.814 3:-0.43 4:0.701 5:0.442 6:0.482 7:0.751 8:0.647 9:1.757 10:-0.228 11:-1.666 12:0.411 13:0.722 14:-1.712 15:-1.201 
-1 1:1.242 2:-0.917 3:-1.771 4:-1.186 5:-0.005 6:-0.051 7:-0.846 8:-0.575 9:1.356 10:-0.486 11:-1.056 12:-0.689 13:0.846 14:1.675 15:-0.006 
-1 1:1.052 2:-0.016 3:-0.176 4:-0.734 5:0.575 6:-0.167 7:0.624 8:1.232 9:-0.714 10:-0.811 11:0.967 12:0.85 13:0.798 14:1.661 15:0.933 
-1 1:-0.627 2:0.286 3:-0.142 4:1.569 5:0.173 6:0.991 7:0.387 8:0.765 9:0.607 10:1.504 11:0.857 12:2.272 13:-0.596 14:-0.995 15:-1.204 
-1 1:1.146 2:-1.136 3:0.09 4:0.546 5:-0.588 6:0.286 7:0.213 8:0.149 9:1.466 10:1.585 11:0.025 12:1.968 13:-0.472 14:-0.161 15:-0.217 
-1 1:0.61 2:1.194 3:-1.23 4:0.215 5:-1.01 6:-0.304 7:1.994 8:-0.094 9:0.77 10:0.915 11:1.008 12:0.721 13:1.171 14:1.858 15:-0.445 
-1 1:0.698 2:-0.734 3:-0.805 4:0.209 5:1.444 6:0.524 7:-1.83 8:0.352 9:-0.675 10:-0.965 11:-1.38 12:-0.678 13:0.666 14:-0.099 15:0.993 
-1 1:2.039 2:-1.918 3:-0.451 4:-2.77 5:-1.862 6:-0.551 7:-1.288 8:1.148 9:0.314 10:0.765 11:-0.275 12:0.85 13:-1.301 14:1.661 15:1.017 
-1 1:-0.997 2:1.529 3:-0.623 4:0.191 5:-1.031 6:-0.345 7:-1.111 8:0.657 9:-0.646 10:-0.83 11:0.578 12:0.467 13:-1.767 14:-0.306 15:-1.846 
-1 1:-1.623 2:0.062 3:0.658 4:-1.244 5:-1.297 6:0.578 7:1.389 8:-0.264 9:-0.202 10:0.778 11:0.8 12:-0.681 13:-0.72 14:-0.099 15:0.742 
-0.1020641354973756 1:1.48 2:1.343 3:-0.676 4:1.344 5:-1.671 6:-0.704 7:-1.118 8:0.027 9:-0.368 10:0.703 11:-1.219 12:-0.66 13:-0.152 14:-0.868 15:0.137 
-0.02386794446856523 1:-0.307 2:0.066 3:1.521 4:0.094 5:0.439 6:-0.015 7:-0.261 8:-1.123 9:-1.816 10:-0.87 11:0.978 12:2.101 13:-0.507 14:0.168 15:1.06 
-1 1:0.528 2:0.919 3:0.842 4:1.204 5:1.094 6:0.67 7:2.206 8:0.41 9:-1.015 10:0.173 11:1.565 12:0.701 13:-0.669 14:0.516 15:-1.104 
-1 1:0.228 2:0.814 3:0.049 4:1.113 5:-1.454 6:0.657 7:0.528 8:0.376 9:0.453 10:1.588 11:1.02 12:0.564 13:0.306 14:-0.081 15:-0.747 
-0.5602191415631212 1:1.446 2:-0.507 3:-1.094 4:-0.743 5:1.275 6:-0.286 7:-0.633 8:-0.839 9:-0.214 10:1.359 11:1.368 12:-0.529 13:0.365 14:-0.788 15:-0.572 
-0.410600178791419 1:0.376 2:-1.65 3:0.09 4:-0.865 5:1.221 6:-1.171 7:-1.32 8:1.256 9:1.417 10:-0.938 11:1.057 12:-1.008 13:-1.088 14:-0.292 15:0.085 
-1 1:0.484 2:-2.477 3:0.331 4:-1.835 5:1.32 6:-0.47 7:1.466 8:1.229 9:1.408 10:0.517 11:1.344 12:0.079 13:0.897 14:0.174 15:-0.523 
-0.3263122451156305 1:1.823 2:1.477 3:0.987 4:-0.249 5:-1.463 6:-0.349 7:-0.608 8:-0.829 9:-0.319 10:-0.053 11:-1.026 12:-1.13 13:0.028 14:-1.75 15:-0.69 
-1 1:1.502 2:0.111 3:-0.812 4:-0.974 5:-1.433 6:0.753 7:-1.239 8:-0.612 9:0.297 10:-0.174 11:2.018 12:0.657 13:2.121 14:-0.398 15:0.781 
-1 1:1.084 2:0.148 3:-0.196 4:1.948 5:-0.364 6:1.094 7:1.534 8:0.119 9:0.58 10:-0.099 11:0.566 12:0.334 13:-0.38 14:-0.83 15:-0.55 
-0.2567509580580393 1:-0.847 2:1.194 3:0.726 4:1.047 5:-1.388 6:-0.165 7:-2.166 8:-1.076 9:-0.851 10:-1.266 11:1.503 12:0.473 13:-0.089 14:-0.979 15:0.103 
-0.9307631392750628 1:1.624 2:-0.865 3:0.494 4:-2.112 5:0.958 6:-1.009 7:-0.176 8:0.928 9:1.522 10:0.732 11:0.978 12:-0.83 13:-1.171 14:-1.834 15:-0.145 
-0.4572875875405288 1:0.886 2:-0.168 3:-0.43 4:0.595 5:0.635 6:-0.116 7:-0.764 8:0.088 9:-0.732 10:-1.15 11:-1.666 12:-0.823 13:0.578 14:-0.756 15:1.786 
-1 1:0.59 2:0.617 3:-0.41 4:-0.039 5:-0.639 6:-0.156 7:-0.145 8:1.442 9:-0.363 10:0.197 11:-0.104 12:-0.701 13:0.991 14:-0.338 15:0.488 
-1 1:-0.683 2:0.479 3:1.514 4:-0.589 5:0.548 6:0.1 7:-1.207 8:-1.523 9:-0.783 10:-0.085 11:-0.368 12:-1.039 13:0.111 14:-1.879 15:-1.64 
-0.9816825414833198 1:-0.999 2:0.096 3:1.289 4:-0.458 5:1.067 6:-1.382 7:1.796 8:0.877 9:1.566 10:0.652 11:0.141 12:2.299 13:-1.128 14:-1.149 15:0.209 
-1 1:-0.581 2:0.062 3:-0.046 4:1.729 5:0.385 6:0.414 7:-0.477 8:-0.298 9:0.17 10:0.544 11:-1.177 12:0.177 13:-0.018 14:-0.123 15:1.096 
-1 1:-1.261 2:1.302 3:1.205 4:0.094 5:-0.727 6:0.264 7:-0.18 8:-0.771 9:0.372 10:-1.118 11:-2.258 12:-1.049 13:0.238 14:0.174 15:-0.084 
-0.7106007678492016 1:0.162 2:0.904 3:-1.285 4:-0.215 5:1.39 6:-0.726 7:-0.807 8:-0.924 9:1.513 10:0.714 11:-0.157 12:-0.944 13:1.888 14:1.681 15:-0.596 
-0.9741012521370064 1:0.68 2:0.371 3:1.171 4:-0.78 5:0.907 6:0.52 7:-0.449 8:-1.749 9:-1.931 10:-1.123 11:-0.353 12:-0.788 13:-0.178 14:-0.338 15:1.017 
-1 1:-0.078 2:0.074 3:-0.876 4:-0.17 5:-0.853 6:-0.403 7:0.394 8:1.124 9:-0.587 10:0.864 11:2.419 12:1.193 13:0.872 14:-0.665 15:-0.511 
-1 1:0.354 2:-0.131 3:-0.142 4:-0.928 5:-0.491 6:0.071 7:-0.127 8:0.86 9:0.675 10:-1.58 11:-0.095 12:0.282 13:0.524 14:0.482 15:1.03 
-1 1:1.879 2:-1.535 3:-0.751 4:-0.853 5:0.638 6:0.163 7:-0.463 8:-1.587 9:-1.113 10:0.649 11:0.542 12:0.504 13:-1.136 14:-0.525 15:0.076 
-0.9414915370550959 1:-1.449 2:-1.103 3:0.035 4:1.235 5:0.892 6:-1.653 7:0.337 8:0.521 9:0.485 10:1.254 11:2.16 12:2.409 13:-0.928 14:0.144 15:1.248 
-1 1:1.11 2:0.729 3:-0.355 4:-0.837 5:-0.808 6:0.098 7:-0.134 8:0.88 9:-0.47 10:-0.462 11:0.385 12:0.533 13:1.371 14:0.942 15:0.27 
-1 1:-1.169 2:-0.217 3:-0.812 4:-0.543 5:-1.554 6:0.017 7:-1.316 8:-0.027 9:0.529 10:-1.438 11:0.121 12:0.419 13:0.717 14:0.436 15:-0.423 
-1 1:-0.807 2:1.414 3:1.882 4:-0.064 5:-0.467 6:-0.913 7:0.245 8:-0.372 9:1.549 10:-1.298 11:-0.172 12:0.436 13:1.031 14:2.014 15:1.111 
-0.5549210038621817 1:-0.317 2:2.136 3:-0.333 4:-0.44 5:1.574 6:0.012 7:-0.916 8:-0.687 9:-1.291 10:-0.618 11:-1.052 12:0.632 13:-0.738 14:0.436 15:-0.154 
-1 1:-0.937 2:0.569 3:0.565 4:-1.763 5:0.698 6:0.486 7:-0.86 8:-0.602 9:0.16 10:0.361 11:-1.436 12:-0.662 13:-0.424 14:0.008 15:0.234 
-1 1:0.332 2:-0.295 3:0.849 4:-0.115 5:1.139 6:-0.47 7:-0.198 8:0.691 9:1.295 10:-0.736 11:1.514 12:0.796 13:0.324 14:0.918 15:-1.331 
-1 1:-0.008 2:1.023 3:-0.503 4:0.024 5:-1.116 6:0.068 7:0.525 8:0.572 9:-0.067 10:0.676 11:0.415 12:0.928 13:-1.311 14:0.745 15:-0.584 
-1 1:0.996 2:0.68 3:-0.798 4:-0.567 5:0.363 6:-0.205 7:-0.109 8:0.772 9:1.73 10:-0.701 11:-1.177 12:-0.813 13:0.55 14:-0.784 15:-0.245 
-1 1:-1.321 2:0.632 3:0.565 4:1.326 5:-1.569 6:-1.561 7:1.622 8:1.019 9:0.653 10:1.19 11:-1.056 12:0.411 13:1.135 14:-0.159 15:1.002 
-1 1:0.104 2:-0.217 3:1.651 4:-0.862 5:0.997 6:-0.535 7:0.185 8:0.156 9:-0.463 10:0.681 11:-1.312 12:-1.033 13:1.863 14:1.781 15:1.814 
-1 1:-1.247 2:1.179 3:0.633 4:-0.2 5:0.439 6:-0.524 7:-1.309 8:1.472 9:-0.038 10:1.359 11:-0.104 12:0.721 13:-0.302 14:-1.682 15:-0.844 
-0.5841942942048005 1:0.398 2:-0.046 3:1.33 4:0.291 5:0.997 6:-1.045 7:0.436 8:-0.738 9:0.116 10:-1.906 11:-1.972 12:-2.617 13:-0.591 14:-1.481 15:0.733 
-1 1:0.654 2:-1.17 3:-0.326 4:-0.701 5:1.474 6:0.149 7:-0.389 8:-0.497 9:-1.33 10:0.205 11:0.593 12:-0.894 13:0.73 14:-1.358 15:0.715 
-1 1:0.254 2:1.619 3:-0.23 4:-0.258 5:1.435 6:-0.028 7:1.272 8:1.175 9:0.663 10:-1.228 11:-0.469 12:-0.113 13:0.063 14:-1.628 15:-1.168 
-0.4327980923656832 1:0.836 2:1.161 3:0.185 4:1.39 5:-1.801 6:-0.042 7:0.482 8:-2.007 9:-0.461 10:0.321 11:-0.08 12:0.16 13:1.034 14:-0.01 15:0.848 
-0.3828554448048044 1:-1.023 2:1.202 3:-0.178 4:-0.039 5:-0.941 6:0.068 7:-1.837 8:-1.55 9:-1.694 10:-1.349 11:0.121 12:0.5 13:-2.15 14:-0.734 15:-1.071 
-1 1:-1.253 2:-1.486 3:-0.976 4:0.14 5:-0.099 6:-0.021 7:0.294 8:0.244 9:0.607 10:1.504 11:-0.353 12:0.011 13:-0.426 14:0.986 15:-0.478 
-1 1:1.412 2:0.342 3:-0.333 4:1.204 5:-0.874 6:-0.569 7:1.778 8:0.819 9:0.802 10:0.305 11:-0.312 12:-1.204 13:-2.368 14:-0.947 15:-0.329 
-0.5116384524221246 1:-0.429 2:0.505 3:-0.333 4:0.052 5:0.052 6:-0.089 7:-1.161 8:0.129 9:-1.589 10:-1.005 11:-0.599 12:0.425 13:0.613 14:-1.517 15:0.576 
-1 1:-2.146 2:1.045 3:-0.196 4:1.256 5:-0.367 6:-0.378 7:-0.608 8:-0.511 9:-0.077 10:-0.771 11:0.418 12:0.74 13:-1.503 14:-0.505 15:-1.38 
-0.4408919225374587 1:0.226 2:-0.094 3:1.383 4:-0.971 5:-0.684 6:-0.185 7:0.542 8:0.132 9:1.835 10:-0.486 11:-0.61 12:-0.817 13:0.654 14:0.45 15:-0.027 
-1 1:-0.337 2:1.283 3:-0.333 4:-0.146 5:-0.023 6:1.177 7:-0.828 8:-1.746 9:-0.641 10:-1.333 11:-0.466 12:-0.892 13:0.319 14:0.898 15:0.473 
-1 1:-0.251 2:-0.935 3:-0.526 4:-0.385 5:-0.645 6:0.448 7:0.379 8:0.01 9:-0.282 10:0.727 11:0.542 12:1.786 13:-0.16 14:-0.133 15:-1.119 
-1 1:0.318 2:-1.103 3:-1.523 4:1.277 5:-1.868 6:0.378 7:-0.191 8:-2.711 9:-0.014 10:-0.056 11:1.28 12:0.541 13:-0.17 14:0.681 15:-0.039 
-1 1:-0.621 2:0.07 3:1.467 4:0.228 5:-0.029 6:-0.012 7:-0.803 8:0.403 9:-1.515 10:-0.596 11:-0.599 12:0.419 13:-0.591 14:-0.547 15:-0.514 
-1 1:0.444 2:-0.63 3:0.91 4:0.149 5:1.701 6:-0.154 7:-0.941 8:-0.081 9:0.533 10:-1.422 11:0.07 12:0.694 13:0.606 14:-0.326 15:-0.339 
-0.4663952581074679 1:-0.151 2:0.051 3:1.383 4:0.109 5:0.526 6:0.1 7:0.539 8:-1.858 9:-0.724 10:-1.182 11:-0.239 12:2.239 13:-0.363 14:1.189 15:-0.426 
-1 1:-0.851 2:-0.578 3:0.98 4:-0.146 5:-0.956 6:0.47 7:1.417 8:0.207 9:0.084 10:1.491 11:-0.054 12:0.44 13:0.963 14:1.115 15:-0.469 
-1 1:0.354 2:-0.068 3:-1.25 4:-0.234 5:1.387 6:-0.199 7:0.015 8:-0.897 9:1.051 10:-0.104 11:0.615 12:0.767 13:-0.685 14:1.123 15:-0.608 
-0.1692426667501056 1:1.098 2:0.904 3:-0.73 4:0.698 5:-0.751 6:-1.665 7:-0.311 8:0.488 9:0.389 10:1.211 11:2.419 12:0.433 13:0.111 14:-1.734 15:-0.19 
-1 1:1.386 2:-1.278 3:-0.587 4:-0.98 5:-1.466 6:0.376 7:-0.474 8:-0.612 9:0.316 10:0.899 11:0.8 12:0.773 13:0.801 14:0.417 15:-0.971 
-1 1:0.402 2:2.073 3:0.049 4:1.141 5:0.632 6:0.524 7:-0.106 8:1.493 9:0.062 10:-0.714 11:-0.157 12:0.568 13:-0.555 14:1.826 15:0.352 
-1 1:0.34 2:0.989 3:-0.621 4:-0.346 5:0.071 6:0.661 7:1.778 8:-0.396 9:0.172 10:0.942 11:-0.074 12:0.081 13:0.742 14:-0.123 15:0.921 
-0.008926844354724964 1:0.414 2:-0.641 3:1.117 4:-1.256 5:0.397 6:-0.83 7:-2.318 8:-2.805 9:-1.264 10:-1.067 11:0.4 12:0.208 13:0.912 14:1.143 15:2.319 
-1 1:-0.295 2:0.062 3:0.644 4:0.482 5:0.496 6:0.122 7:1.073 8:1.09 9:1.696 10:-0.454 11:0.141 12:2.171 13:-0.634 14:0.419 15:-0.172 
-1 1:-0.467 2:-2.544 3:-0.676 4:-0.777 5:0.173 6:-0.758 7:0.252 8:0.274 9:-0.17 10:1.058 11:-0.275 12:-0.881 13:0.768 14:1.376 15:1.847 
-1 1:1.352 2:-0.824 3:-0.498 4:-0.998 5:0.288 6:1.027 7:-0.46 8:-0.281 9:0.463 10:-1.459 11:0.967 12:0.697 13:-1.247 14:-0.539 15:-0.947 
-0.09980061097954393 1:1.486 2:1.272 3:1.746 4:1.59 5:0.369 6:-0.688 7:0.369 8:-0.995 9:-1.071 10:-1.395 11:-0.25 12:0.15 13:-0.991 14:0.516 15:-0.911 
-1 1:-0.721 2:-0.671 3:-0.751 4:-0.364 5:-1.122 6:1.195 7:0.624 8:0.914 9:-0.631 10:0.071 11:0.059 12:0.547 13:0.514 14:-0.408 15:-0.508 
-0.787736299925863 1:-1.025 2:0.811 3:-0.333 4:1.326 5:0.092 6:0.068 7:0.549 8:-1.587 9:-1.22 10:-2 11:1.759 12:0.529 13:0.403 14:0.198 15:0.149 
-0.5684343496994483 1:0.628 2:0.654 3:-2.002 4:-1.878 5:0.668 6:0.125 7:-0.477 8:-0.122 9:-0.705 10:-2.164 11:-0.464 12:-1.03 13:-0.964 14:0.136 15:-0.511 
-1 1:-0.829 2:0.114 3:1.651 4:0.892 5:-1.499 6:0.522 7:-0.824 8:-1.533 9:-1.752 10:-0.844 11:-1.421 12:-0.956 13:0.986 14:-0.822 15:0.766 
-1 1:-1.079 2:0.61 3:0.44 4:0.373 5:1.019 6:-1.171 7:1.82 8:-1.252 9:0.016 10:0.81 11:-1.972 12:-2.459 13:-1.354 14:-1.915 15:-0.974 
-1 1:-0.585 2:-0.325 3:1.383 4:0.388 5:0.849 6:-0.024 7:-0.23 8:0.389 9:-0.285 10:0.227 11:2.003 12:0.322 13:-0.043 14:0.369 15:1.859 
-0.674763149554249 1:-0.615 2:0.84 3:-0.135 4:1.681 5:-0.017 6:-0.448 7:-0.623 8:-0.477 9:-0.39 10:-0.316 11:2.018 12:0.804 13:-0.538 14:-0.916 15:-1.392 
-0.9247524762793752 1:0.196 2:-1.762 3:0.283 4:-0.755 5:-0.259 6:0.511 7:-0.53 8:-0.643 9:-0.561 10:0.256 11:-0.64 12:-0.962 13:0.218 14:0.353 15:1.184 
-0.5144932912428551 1:0.796 2:-0.072 3:-1.955 4:0.215 5:0.037 6:-0.666 7:-0.106 8:0.447 9:0.043 10:0.307 11:-1.38 12:-1.306 13:0.722 14:-1.712 15:-0.702 
